{"learner":{"attributes":{"scikit_learn":"{\"_estimator_type\": \"classifier\"}"},"feature_names":[],"feature_types":[],"gradient_booster":{"model":{"cats":{"enc":[],"feature_segments":[],"sorted_idx":[]},"gbtree_model_param":{"num_parallel_tree":"1","num_trees":"400"},"iteration_indptr":[0,1,2,3,4,5,6,7,8,9,10,11,12,13,14,15,16,17,18,19,20,21,22,23,24,25,26,27,28,29,30,31,32,33,34,35,36,37,38,39,40,41,42,43,44,45,46,47,48,49,50,51,52,53,54,55,56,57,58,59,60,61,62,63,64,65,66,67,68,69,70,71,72,73,74,75,76,77,78,79,80,81,82,83,84,85,86,87,88,89,90,91,92,93,94,95,96,97,98,99,100,101,102,103,104,105,106,107,108,109,110,111,112,113,114,115,116,117,118,119,120,121,122,123,124,125,126,127,128,129,130,131,132,133,134,135,136,137,138,139,140,141,142,143,144,145,146,147,148,149,150,151,152,153,154,155,156,157,158,159,160,161,162,163,164,165,166,167,168,169,170,171,172,173,174,175,176,177,178,179,180,181,182,183,184,185,186,187,188,189,190,191,192,193,194,195,196,197,198,199,200,201,202,203,204,205,206,207,208,209,210,211,212,213,214,215,216,217,218,219,220,221,222,223,224,225,226,227,228,229,230,231,232,233,234,235,236,237,238,239,240,241,242,243,244,245,246,247,248,249,250,251,252,253,254,255,256,257,258,259,260,261,262,263,264,265,266,267,268,269,270,271,272,273,274,275,276,277,278,279,280,281,282,283,284,285,286,287,288,289,290,291,292,293,294,295,296,297,298,299,300,301,302,303,304,305,306,307,308,309,310,311,312,313,314,315,316,317,318,319,320,321,322,323,324,325,326,327,328,329,330,331,332,333,334,335,336,337,338,339,340,341,342,343,344,345,346,347,348,349,350,351,352,353,354,355,356,357,358,359,360,361,362,363,364,365,366,367,368,369,370,371,372,373,374,375,376,377,378,379,380,381,382,383,384,385,386,387,388,389,390,391,392,393,394,395,396,397,398,399,400],"tree_info":[0,0,0,0,0,0,0,0,0,0,0,0,0,0,0,0,0,0,0,0,0,0,0,0,0,0,0,0,0,0,0,0,0,0,0,0,0,0,0,0,0,0,0,0,0,0,0,0,0,0,0,0,0,0,0,0,0,0,0,0,0,0,0,0,0,0,0,0,0,0,0,0,0,0,0,0,0,0,0,0,0,0,0,0,0,0,0,0,0,0,0,0,0,0,0,0,0,0,0,0,0,0,0,0,0,0,0,0,0,0,0,0,0,0,0,0,0,0,0,0,0,0,0,0,0,0,0,0,0,0,0,0,0,0,0,0,0,0,0,0,0,0,0,0,0,0,0,0,0,0,0,0,0,0,0,0,0,0,0,0,0,0,0,0,0,0,0,0,0,0,0,0,0,0,0,0,0,0,0,0,0,0,0,0,0,0,0,0,0,0,0,0,0,0,0,0,0,0,0,0,0,0,0,0,0,0,0,0,0,0,0,0,0,0,0,0,0,0,0,0,0,0,0,0,0,0,0,0,0,0,0,0,0,0,0,0,0,0,0,0,0,0,0,0,0,0,0,0,0,0,0,0,0,0,0,0,0,0,0,0,0,0,0,0,0,0,0,0,0,0,0,0,0,0,0,0,0,0,0,0,0,0,0,0,0,0,0,0,0,0,0,0,0,0,0,0,0,0,0,0,0,0,0,0,0,0,0,0,0,0,0,0,0,0,0,0,0,0,0,0,0,0,0,0,0,0,0,0,0,0,0,0,0,0,0,0,0,0,0,0,0,0,0,0,0,0,0,0,0,0,0,0,0,0,0,0,0,0,0,0,0,0,0,0,0,0,0,0,0,0,0,0,0,0,0,0,0,0,0,0,0,0,0,0,0,0,0,0,0,0,0,0,0,0,0,0,0,0,0,0],"trees":[{"base_weights":[-1.0035334E-2,7.312688E-1,-1.0947651E0,1.1685183E0,-2.5333986E-1,-1.9886713E-1,-1.3944495E0,5.9600115E-1,1.670975E0,-9.1585374E-1,3.6973926E-1,-7.917231E-1,6.2197554E-1,-7.287143E-1,-1.5136065E0,1.0275902E0,-2.7659622E-1,1.7995408E0,2.0627594E-1,-1.0725576E0,3.5241318E-1,8.10611E-1,-6.950905E-1,5.237182E-1,-1.0688086E0,1.2362937E0,-3.120239E-1,-1.0272868E0,1.1646315E0,-1.5247413E0,2.6564367E-2,1.3598808E0,-5.505128E-1,4.9441344E-1,-8.4550637E-1,1.1900712E0,1.978963E0,-9.476662E-1,1.0316825E0,-2.859044E-1,-1.2978561E0,1.9733362E0,-1.1930556E0,1.3172781E0,6.2077645E-2,4.569964E-1,-1.1436774E0,-5.477363E-1,1.8306555E0,-1.2658827E0,3.7274948E-1,1.5154853E0,-3.9092153E-2,4.7039342E-1,-4.4855814E-2,-3.2996917E-1,-1.4703963E0,-3.431334E-2,1.8809512E0,-1.5358148E0,3.6015627E-1,5.7243444E-2,2.302081E-2,1.2808954E-2,-3.9737675E-2,-2.110658E-2,3.1296816E-2,-3.018206E-2,3.81467E-2,4.0914353E-2,-4.029469E-2,6.033727E-2,-3.431334E-2,2.5352193E-2,-4.4343628E-2,-1.863403E-2,5.3806346E-2,-4.0611304E-2,2.0090995E-2,-4.2076614E-2,1.9514373E-3,6.7722455E-2,5.4274285E-3,-4.311291E-2,1.1600712E-2,-1.9662004E-2,4.5386918E-2,1.8337749E-2,-3.977534E-2,-1.8482089E-2,6.015971E-2,-4.0247414E-2,3.0326039E-2,4.8428774E-2,-4.29514E-2,3.989921E-4,6.6851415E-2,5.5820933E-3,-4.349507E-2,6.302962E-2,-3.0367952E-2,5.480666E-2,-2.475803E-3,3.2186218E-2,-3.9529078E-2,-3.977534E-2,1.6726952E-2,-4.7638867E-2,4.269129E-2,6.7722455E-2,3.989921E-4,-4.64064E-2,4.9611065E-4,4.269129E-2,-2.645837E-2],"categories":[],"categories_nodes":[],"categories_segments":[],"categories_sizes":[],"default_left":[0,0,0,0,0,0,0,0,0,0,0,0,0,0,0,0,0,0,0,0,0,0,0,0,0,0,0,0,0,0,0,0,0,0,0,0,0,0,0,0,0,0,0,0,0,0,0,0,0,0,0,0,0,0,0,0,0,0,0,0,0,0,0,0,0,0,0,0,0,0,0,0,0,0,0,0,0,0,0,0,0,0,0,0,0,0,0,0,0,0,0,0,0,0,0,0,0,0,0,0,0,0,0,0,0,0,0,0,0,0,0,0,0,0,0],"id":0,"left_children":[1,3,5,7,9,11,13,15,17,19,21,23,25,27,29,31,33,35,37,39,41,43,45,47,49,51,53,55,57,59,-1,61,63,65,67,69,71,73,75,77,79,81,83,85,87,89,91,93,95,97,99,101,-1,103,-1,105,107,-1,109,111,113,-1,-1,-1,-1,-1,-1,-1,-1,-1,-1,-1,-1,-1,-1,-1,-1,-1,-1,-1,-1,-1,-1,-1,-1,-1,-1,-1,-1,-1,-1,-1,-1,-1,-1,-1,-1,-1,-1,-1,-1,-1,-1,-1,-1,-1,-1,-1,-1,-1,-1,-1,-1,-1,-1],"loss_changes":[1.3893964E3,4.4218933E2,1.8805127E2,2.0352026E2,1.3097523E2,8.662324E1,4.0579773E1,1.260181E2,7.082703E1,3.091809E1,7.745943E1,3.817753E1,4.3294548E1,4.7381195E1,1.3230957E1,1.1799733E2,4.9225742E1,3.5639404E1,3.1112701E1,2.391243E1,4.6572598E1,4.402585E1,2.5587458E1,2.7088203E1,2.4784195E1,3.410077E1,2.8910389E1,2.1484505E1,2.1328335E1,9.801025E0,0E0,5.862729E1,3.0530787E1,3.221011E1,2.316893E1,3.7715767E1,2.9205933E1,1.4291514E1,2.4943342E1,3.3342335E1,1.5249207E1,4.1703224E0,4.2795715E0,2.7736107E1,3.7392784E1,2.500468E1,1.6362003E1,2.3345652E1,6.2025604E0,2.0438782E1,2.8611935E1,2.069645E1,0E0,2.1991182E1,0E0,2.6297192E1,1.6950401E1,0E0,6.458931E0,7.595093E0,5.740857E0,0E0,0E0,0E0,0E0,0E0,0E0,0E0,0E0,0E0,0E0,0E0,0E0,0E0,0E0,0E0,0E0,0E0,0E0,0E0,0E0,0E0,0E0,0E0,0E0,0E0,0E0,0E0,0E0,0E0,0E0,0E0,0E0,0E0,0E0,0E0,0E0,0E0,0E0,0E0,0E0,0E0,0E0,0E0,0E0,0E0,0E0,0E0,0E0,0E0,0E0,0E0,0E0,0E0,0E0],"parents":[2147483647,0,0,1,1,2,2,3,3,4,4,5,5,6,6,7,7,8,8,9,9,10,10,11,11,12,12,13,13,14,14,15,15,16,16,17,17,18,18,19,19,20,20,21,21,22,22,23,23,24,24,25,25,26,26,27,27,28,28,29,29,31,31,32,32,33,33,34,34,35,35,36,36,37,37,38,38,39,39,40,40,41,41,42,42,43,43,44,44,45,45,46,46,47,47,48,48,49,49,50,50,51,51,53,53,55,55,56,56,58,58,59,59,60,60],"right_children":[2,4,6,8,10,12,14,16,18,20,22,24,26,28,30,32,34,36,38,40,42,44,46,48,50,52,54,56,58,60,-1,62,64,66,68,70,72,74,76,78,80,82,84,86,88,90,92,94,96,98,100,102,-1,104,-1,106,108,-1,110,112,114,-1,-1,-1,-1,-1,-1,-1,-1,-1,-1,-1,-1,-1,-1,-1,-1,-1,-1,-1,-1,-1,-1,-1,-1,-1,-1,-1,-1,-1,-1,-1,-1,-1,-1,-1,-1,-1,-1,-1,-1,-1,-1,-1,-1,-1,-1,-1,-1,-1,-1,-1,-1,-1,-1],"split_conditions":[5.697105E-1,4.0885624E-1,1.0896134E-1,3.474113E-1,8.4138215E-2,1.6878922E-1,9.867513E-4,2.2173034E-1,7.8698474E-1,7.361113E-1,4.6819726E-1,7.625794E-4,4.0610578E-2,3.3532977E-1,1.8959448E0,7.223923E-1,2.1813127E-1,4.0304348E-2,1.6351381E-1,6.931907E-2,9.4174796E-1,3.5773355E-1,3.0508917E-3,6.1624247E-1,4.581631E-1,7.2799224E-1,1.7748828E-1,2.0408116E-1,7.609463E-2,2.9957676E0,2.6564367E-2,1.2522396E-2,5.003721E-2,5.6498004E-3,7.4669313E-1,1.2452196E0,1.9434133E0,1.2003568E-2,2.900692E-1,6.3595824E-2,1.0274029E0,7.8103065E-2,8.1029207E-1,5.829013E-3,2.3940071E-1,1.5302892E-1,1.2722037E0,1.9921185E-3,6.886609E-3,1.0803574E-3,7.7356613E-4,6.550426E-1,-3.9092153E-2,2.8209418E-1,-4.4855814E-2,6.0646876E-4,1.4533021E0,-3.431334E-2,1.8265131E-1,1.5535684E0,2.895711E-1,5.7243444E-2,2.302081E-2,1.2808954E-2,-3.9737675E-2,-2.110658E-2,3.1296816E-2,-3.018206E-2,3.81467E-2,4.0914353E-2,-4.029469E-2,6.033727E-2,-3.431334E-2,2.5352193E-2,-4.4343628E-2,-1.863403E-2,5.3806346E-2,-4.0611304E-2,2.0090995E-2,-4.2076614E-2,1.9514373E-3,6.7722455E-2,5.4274285E-3,-4.311291E-2,1.1600712E-2,-1.9662004E-2,4.5386918E-2,1.8337749E-2,-3.977534E-2,-1.8482089E-2,6.015971E-2,-4.0247414E-2,3.0326039E-2,4.8428774E-2,-4.29514E-2,3.989921E-4,6.6851415E-2,5.5820933E-3,-4.349507E-2,6.302962E-2,-3.0367952E-2,5.480666E-2,-2.475803E-3,3.2186218E-2,-3.9529078E-2,-3.977534E-2,1.6726952E-2,-4.7638867E-2,4.269129E-2,6.7722455E-2,3.989921E-4,-4.64064E-2,4.9611065E-4,4.269129E-2,-2.645837E-2],"split_indices":[445,735,219,238,1192,238,412,707,961,357,1172,18,1171,1192,238,1219,1208,402,434,723,357,266,1032,274,420,670,735,1232,1038,689,0,208,491,781,658,78,660,169,392,878,1091,9,10,1064,457,315,547,756,347,20,729,614,0,189,0,1031,1264,0,133,70,23,0,0,0,0,0,0,0,0,0,0,0,0,0,0,0,0,0,0,0,0,0,0,0,0,0,0,0,0,0,0,0,0,0,0,0,0,0,0,0,0,0,0,0,0,0,0,0,0,0,0,0,0,0,0],"split_type":[0,0,0,0,0,0,0,0,0,0,0,0,0,0,0,0,0,0,0,0,0,0,0,0,0,0,0,0,0,0,0,0,0,0,0,0,0,0,0,0,0,0,0,0,0,0,0,0,0,0,0,0,0,0,0,0,0,0,0,0,0,0,0,0,0,0,0,0,0,0,0,0,0,0,0,0,0,0,0,0,0,0,0,0,0,0,0,0,0,0,0,0,0,0,0,0,0,0,0,0,0,0,0,0,0,0,0,0,0,0,0,0,0,0,0],"sum_hessian":[1.725863E3,1.0254183E3,7.004448E2,7.099525E2,3.1546576E2,1.759903E2,5.244545E2,3.3286282E2,3.770897E2,1.526668E2,1.6279897E2,1.02206696E2,7.37836E1,8.0699455E1,4.4375507E2,2.2259106E2,1.1027175E2,3.4645093E2,3.0638756E1,1.3601538E2,1.6651407E1,1.1530002E2,4.7498955E1,1.7628183E1,8.457851E1,4.4313614E1,2.9469984E1,7.010208E1,1.0597373E1,4.4206778E2,1.6872835E0,1.8398817E2,3.8602886E1,4.6875355E1,6.33964E1,8.053135E1,2.659196E2,1.2714874E1,1.7923882E1,3.0787298E1,1.0522808E2,7.992177E0,8.659231E0,6.830555E1,4.6994465E1,1.33062725E1,3.4192684E1,1.0005976E1,7.622207E0,7.451367E1,1.0064838E1,4.02874E1,4.0262127E0,1.8101856E1,1.136813E1,2.7915834E1,4.2186245E1,2.3683603E0,8.229013E0,4.3966998E2,2.3977916E0,9.4412224E1,8.957596E1,1.7258213E1,2.1344675E1,1.4638994E1,3.2236362E1,5.9415028E1,3.9813728E0,7.5794624E1,4.7367206E0,2.6355124E2,2.3683603E0,2.7677612E0,9.947113E0,5.713496E0,1.2210386E1,1.4343295E1,1.6444002E1,9.769417E1,7.533913E0,6.6748633E0,1.3173138E0,7.578753E0,1.0804778E0,5.950332E0,6.235522E1,3.4072186E1,1.2922279E1,8.21499E0,5.091282E0,3.1661757E1,2.5309253E0,2.664059E0,7.341917E0,1.5541499E0,6.0680575E0,8.377555E0,6.6136116E1,4.24764E0,5.8171983E0,3.359713E1,6.6902714E0,1.3838807E1,4.2630486E0,1.2922279E1,1.4993556E1,4.0972633E1,1.2136115E0,6.6748633E0,1.5541499E0,4.3656168E2,3.1082997E0,1.2136115E0,1.1841801E0],"tree_param":{"num_deleted":"0","num_feature":"1280","num_nodes":"115","size_leaf_vector":"1"}},{"base_weights":[-2.2125045E-2,6.50393E-1,-1.186013E0,1.0582594E0,-2.8225008E-1,-5.030631E-1,-1.4653504E0,6.192756E-1,1.6543461E0,4.7525764E-2,-1.1684353E0,-1.3062241E0,2.9041536E-2,-1.5079781E0,8.9851305E-2,1.0566125E0,-5.9400775E-2,1.7815971E0,2.0311756E-1,-5.7371384E-1,5.085166E-1,-1.4114211E0,-1.4939125E-1,-1.4012622E0,8.2887304E-1,-5.716849E-1,9.1277295E-1,-1.5193999E0,2.7640395E-2,1.6212552E0,-1.0776476E0,1.3807366E0,2.0389107E-1,6.9149935E-1,-5.590534E-1,1.8532445E0,-6.408993E-1,-1.0149026E0,9.472389E-1,2.2168462E-1,-9.4637954E-1,8.0784655E-1,-5.340011E-1,-1.4772466E0,1.5508654E-2,-1.2281029E0,1.2506499E0,-1.4700812E0,3.3858184E-2,4.3644456E-4,4.1709233E-2,-1.0374457E0,4.7613496E-1,1.3906322E0,-1.1594971E0,-8.4641176E-1,-1.5580605E0,5.982904E-2,5.1652305E-3,-4.109352E-2,1.2391175E-2,5.217433E-2,2.2258326E-2,2.0147266E-2,-2.4319554E-2,2.8601797E-2,-4.2733666E-2,1.1471834E-2,-3.0583944E-2,5.8266684E-2,1.2592356E-2,-4.2434376E-2,4.1147564E-2,-4.40473E-2,4.1601796E-2,-3.738213E-2,4.5316625E-2,3.0630564E-2,-2.1722885E-2,-3.2905713E-2,4.1731577E-2,-2.181132E-2,3.0274145E-2,-3.0984312E-2,2.9227251E-2,-4.6409797E-2,1.5278111E-2,-4.3306015E-2,1.1754601E-2,5.778191E-2,-2.9897323E-2,-4.6240542E-2,2.0588787E-2,-3.543174E-2,4.254834E-2,-1.5117255E-2,5.2905943E-2,4.923268E-2,-2.1909572E-2,-4.2400517E-2,1.1416838E-2,-3.588522E-2,4.313209E-2,-4.6922337E-2,1.1066354E-2],"categories":[],"categories_nodes":[],"categories_segments":[],"categories_sizes":[],"default_left":[0,0,0,0,0,0,0,0,0,0,0,0,0,0,0,0,0,0,0,0,0,0,0,0,0,0,0,0,0,0,0,0,0,0,0,0,0,0,0,0,0,0,0,0,0,0,0,0,0,0,0,0,0,0,0,0,0,0,0,0,0,0,0,0,0,0,0,0,0,0,0,0,0,0,0,0,0,0,0,0,0,0,0,0,0,0,0,0,0,0,0,0,0,0,0,0,0,0,0,0,0,0,0,0,0],"id":1,"left_children":[1,3,5,7,9,11,13,15,17,19,21,23,25,27,29,31,33,35,37,39,41,43,45,47,49,51,53,55,-1,57,59,61,63,65,67,69,71,73,75,77,79,81,83,85,-1,87,89,91,-1,-1,-1,93,95,97,99,101,103,-1,-1,-1,-1,-1,-1,-1,-1,-1,-1,-1,-1,-1,-1,-1,-1,-1,-1,-1,-1,-1,-1,-1,-1,-1,-1,-1,-1,-1,-1,-1,-1,-1,-1,-1,-1,-1,-1,-1,-1,-1,-1,-1,-1,-1,-1,-1,-1],"loss_changes":[1.3540775E3,4.1737222E2,1.2012128E2,1.9864081E2,9.7778625E1,7.928156E1,2.9908081E1,1.3096284E2,5.9289E1,7.035966E1,2.2254524E1,1.6159592E1,6.025137E1,1.3530212E1,2.4855782E1,7.385959E1,6.558406E1,5.2709778E1,2.5585863E1,3.124097E1,4.4423717E1,1.0047958E1,2.9606312E1,1.4043976E1,1.7071159E0,3.3482483E1,4.7080387E1,1.0012085E1,0E0,2.894885E0,4.021137E0,4.3170532E1,3.6156567E1,4.0080772E1,4.5857056E1,3.599237E1,1.6372185E1,1.3779608E1,2.3358793E1,2.6602077E1,2.6666473E1,3.4696358E1,2.5118124E1,1.0623138E1,0E0,4.405321E0,1.49484415E1,1.1767471E1,0E0,0E0,0E0,1.8289116E1,2.7997356E1,2.1260216E1,4.1147575E0,2.2370115E1,5.338623E0,0E0,0E0,0E0,0E0,0E0,0E0,0E0,0E0,0E0,0E0,0E0,0E0,0E0,0E0,0E0,0E0,0E0,0E0,0E0,0E0,0E0,0E0,0E0,0E0,0E0,0E0,0E0,0E0,0E0,0E0,0E0,0E0,0E0,0E0,0E0,0E0,0E0,0E0,0E0,0E0,0E0,0E0,0E0,0E0,0E0,0E0,0E0,0E0],"parents":[2147483647,0,0,1,1,2,2,3,3,4,4,5,5,6,6,7,7,8,8,9,9,10,10,11,11,12,12,13,13,14,14,15,15,16,16,17,17,18,18,19,19,20,20,21,21,22,22,23,23,24,24,25,25,26,26,27,27,29,29,30,30,31,31,32,32,33,33,34,34,35,35,36,36,37,37,38,38,39,39,40,40,41,41,42,42,43,43,45,45,46,46,47,47,51,51,52,52,53,53,54,54,55,55,56,56],"right_children":[2,4,6,8,10,12,14,16,18,20,22,24,26,28,30,32,34,36,38,40,42,44,46,48,50,52,54,56,-1,58,60,62,64,66,68,70,72,74,76,78,80,82,84,86,-1,88,90,92,-1,-1,-1,94,96,98,100,102,104,-1,-1,-1,-1,-1,-1,-1,-1,-1,-1,-1,-1,-1,-1,-1,-1,-1,-1,-1,-1,-1,-1,-1,-1,-1,-1,-1,-1,-1,-1,-1,-1,-1,-1,-1,-1,-1,-1,-1,-1,-1,-1,-1,-1,-1,-1,-1,-1],"split_conditions":[6.792541E-1,4.2529795E-1,2.0118177E-1,5.413441E-1,6.194946E-1,2.0342594E-2,7.3094016E-1,2.0573884E-1,5.412071E-1,4.9585524E-1,1.337062E0,1.4314334E0,4.9257877E-1,1.6821152E0,8.316977E-2,2.4404632E-1,1.7377999E-2,6.017261E-1,1.11981265E-1,4.526659E-2,4.1356432E-1,2.293436E0,1.3189016E-1,1.930913E0,3.4656562E-2,9.010332E-1,5.5868685E-1,1.1199231E-2,2.7640395E-2,4.6539387E-1,6.3813674E-1,4.0141135E-1,1.8696396E-1,1.0495784E0,1.4290512E-1,3.4216323E-1,1.7685002E-1,9.909007E-1,1.2269693E-1,5.5992145E-2,1.7176945E0,5.3020526E-2,4.400012E-1,2.0822268E0,1.5508654E-2,1.8321923E0,1.0620792E-1,1.7264535E0,3.3858184E-2,4.3644456E-4,4.1709233E-2,1.5804846E0,7.961538E-1,8.3192503E-1,7.96927E-1,1.2581023E0,1.2956206E0,5.982904E-2,5.1652305E-3,-4.109352E-2,1.2391175E-2,5.217433E-2,2.2258326E-2,2.0147266E-2,-2.4319554E-2,2.8601797E-2,-4.2733666E-2,1.1471834E-2,-3.0583944E-2,5.8266684E-2,1.2592356E-2,-4.2434376E-2,4.1147564E-2,-4.40473E-2,4.1601796E-2,-3.738213E-2,4.5316625E-2,3.0630564E-2,-2.1722885E-2,-3.2905713E-2,4.1731577E-2,-2.181132E-2,3.0274145E-2,-3.0984312E-2,2.9227251E-2,-4.6409797E-2,1.5278111E-2,-4.3306015E-2,1.1754601E-2,5.778191E-2,-2.9897323E-2,-4.6240542E-2,2.0588787E-2,-3.543174E-2,4.254834E-2,-1.5117255E-2,5.2905943E-2,4.923268E-2,-2.1909572E-2,-4.2400517E-2,1.1416838E-2,-3.588522E-2,4.313209E-2,-4.6922337E-2,1.1066354E-2],"split_indices":[445,735,219,238,219,238,1192,729,744,1104,386,970,1054,153,146,707,208,871,434,425,463,169,970,1233,9,487,451,348,0,41,0,1122,1234,1170,795,1130,45,1029,14,546,1233,743,1179,533,0,550,491,528,0,0,0,643,800,147,509,1164,1206,0,0,0,0,0,0,0,0,0,0,0,0,0,0,0,0,0,0,0,0,0,0,0,0,0,0,0,0,0,0,0,0,0,0,0,0,0,0,0,0,0,0,0,0,0,0,0,0],"split_type":[0,0,0,0,0,0,0,0,0,0,0,0,0,0,0,0,0,0,0,0,0,0,0,0,0,0,0,0,0,0,0,0,0,0,0,0,0,0,0,0,0,0,0,0,0,0,0,0,0,0,0,0,0,0,0,0,0,0,0,0,0,0,0,0,0,0,0,0,0,0,0,0,0,0,0,0,0,0,0,0,0,0,0,0,0,0,0,0,0,0,0,0,0,0,0,0,0,0,0,0,0,0,0,0,0],"sum_hessian":[1.727944E3,1.0954259E3,6.3251807E2,7.6203546E2,3.3339044E2,1.8442346E2,4.480946E2,4.4002277E2,3.220127E2,2.436627E2,8.9727745E1,7.291318E1,1.11510284E2,4.3616968E2,1.192493E1,2.6725052E2,1.7277225E2,2.9584396E2,2.6168732E1,1.03687294E2,1.399754E2,7.214105E1,1.7586697E1,7.013501E1,2.7781694E0,6.659481E1,4.4915474E1,4.3450137E2,1.6683044E0,4.990393E0,6.9345365E0,1.9319633E2,7.4054184E1,6.887695E1,1.038953E2,2.875737E2,8.27026E0,9.786211E0,1.638252E1,3.321023E1,7.0477066E1,1.0892556E2,3.104984E1,6.9986E1,2.1550481E0,1.0002626E1,7.5840707E0,6.868549E1,1.4495169E0,1.5524106E0,1.2257589E0,4.610903E1,2.0485777E1,3.6766224E1,8.149247E0,2.484817E1,4.096532E2,3.669482E0,1.3209113E0,5.866047E0,1.0684899E0,1.2265541E2,7.0540924E1,5.0919388E1,2.3134794E1,6.1779827E1,7.097126E0,3.4177895E1,6.971741E1,2.7043286E2,1.714083E1,6.1885777E0,2.0816824E0,8.559192E0,1.2270192E0,3.1000836E0,1.3282437E1,1.7955471E1,1.5254762E1,6.6713005E1,3.7640572E0,1.2325927E1,9.659964E1,2.3569958E1,7.4798846E0,6.782589E1,2.160112E0,8.92464E0,1.0779866E0,5.941303E0,1.6427679E0,6.6764084E1,1.9214056E0,4.4051907E1,2.0571256E0,1.1976857E1,8.50892E0,3.30855E1,3.6807263E0,7.066693E0,1.0825543E0,2.1961594E1,2.886575E0,4.0856564E2,1.0875763E0],"tree_param":{"num_deleted":"0","num_feature":"1280","num_nodes":"105","size_leaf_vector":"1"}},{"base_weights":[1.3256917E-2,8.446564E-1,-8.5073304E-1,1.1974287E0,-1.3553211E-1,-1.9373459E-1,-1.3181386E0,6.8251586E-1,1.5462236E0,-1.0345616E0,2.871543E-1,6.646474E-1,-5.6233126E-1,-8.348029E-1,-1.4915663E0,3.9304137E-1,1.6722087E0,1.7411336E0,7.1327764E-1,-1.392317E0,2.1295555E-1,7.2582585E-1,-7.007701E-1,1.0188951E0,-1.1063021E0,-2.2061828E-1,-1.2373044E0,-1.1729666E0,4.618907E-2,-1.5117242E0,2.9768276E-1,-3.1973895E-1,8.1891155E-1,1.8285288E0,-6.8080115E-1,7.5213814E-1,1.8701218E0,-5.1599455E-1,1.064957E0,-1.5136658E0,-1.5169576E-1,1.6960778E0,-7.829859E-1,1.0461235E0,-7.7857494E-1,-1.289067E0,1.8725671E-1,-3.42317E-1,1.3232465E0,-1.3666589E0,4.1891236E-2,3.5729972E-1,-6.7479146E-1,-3.08481E-1,-4.6871297E-2,-1.2650362E0,9.3431026E-1,-8.606759E-1,1.3525951E0,-1.5253928E0,2.6294373E-2,5.0501484E-2,-3.1903535E-2,-2.0754902E-2,1.9973354E-2,2.9646873E-2,-3.663813E-2,6.1853163E-2,1.3215424E-2,1.1913667E-2,-3.4293696E-2,3.246712E-2,-2.9532697E-2,5.732923E-2,-2.3228295E-2,2.0280588E-2,-4.3980952E-2,4.1839793E-2,-1.1743073E-2,-4.6839524E-2,1.2979159E-2,4.8870802E-2,-3.724551E-2,6.632249E-4,6.4011164E-2,-4.2453602E-2,3.471328E-2,4.41528E-2,-1.2997279E-4,-3.6532E-2,3.2705966E-2,-4.3465536E-2,2.6545804E-2,-2.1585112E-2,4.9062602E-2,-3.7136532E-2,3.246334E-2,4.4990804E-2,-1.2332978E-2,-4.533061E-2,1.2465701E-2,-3.342749E-2,2.0247795E-2,-3.490012E-2,-3.8458907E-6,2.760454E-2,-4.381885E-2,-4.0181816E-2,2.5701588E-2,-2.5695587E-2,5.362632E-2,-4.081305E-2,2.4565987E-2,-3.341439E-2,5.5685326E-2,-4.597046E-2,1.2591449E-2],"categories":[],"categories_nodes":[],"categories_segments":[],"categories_sizes":[],"default_left":[0,0,0,0,0,0,0,0,0,0,0,0,0,0,0,0,0,0,0,0,0,0,0,0,0,0,0,0,0,0,0,0,0,0,0,0,0,0,0,0,0,0,0,0,0,0,0,0,0,0,0,0,0,0,0,0,0,0,0,0,0,0,0,0,0,0,0,0,0,0,0,0,0,0,0,0,0,0,0,0,0,0,0,0,0,0,0,0,0,0,0,0,0,0,0,0,0,0,0,0,0,0,0,0,0,0,0,0,0,0,0,0,0,0,0,0,0],"id":2,"left_children":[1,3,5,7,9,11,13,15,17,19,21,23,25,27,29,31,33,35,37,39,41,43,45,47,49,51,53,55,57,59,61,63,65,67,69,71,73,75,77,79,81,83,85,87,89,91,93,95,97,99,-1,101,103,105,-1,107,109,111,113,115,-1,-1,-1,-1,-1,-1,-1,-1,-1,-1,-1,-1,-1,-1,-1,-1,-1,-1,-1,-1,-1,-1,-1,-1,-1,-1,-1,-1,-1,-1,-1,-1,-1,-1,-1,-1,-1,-1,-1,-1,-1,-1,-1,-1,-1,-1,-1,-1,-1,-1,-1,-1,-1,-1,-1,-1,-1],"loss_changes":[1.2475125E3,3.061936E2,2.61279E2,1.1584772E2,8.964688E1,1.1275912E2,4.0454163E1,7.51627E1,6.1629578E1,3.3952873E1,7.015856E1,6.835777E1,5.7167114E1,3.9866264E1,1.3608582E1,6.281405E1,2.3160828E1,3.8539307E1,3.3028637E1,8.613159E0,2.7433779E1,5.4679913E1,2.6324951E1,3.766519E1,1.3860283E1,4.3956993E1,2.472538E1,1.992485E1,4.6218163E1,1.31189575E1,1.1032064E1,2.898681E1,4.5864006E1,1.7267609E1,2.6668448E0,2.2734076E1,3.1331604E1,2.0679947E1,2.875309E1,5.6273804E0,1.4335539E1,5.3856544E0,1.5443741E1,4.1405212E1,1.7902073E1,1.1758091E1,2.844906E1,2.3291136E1,2.3144043E1,5.0323906E0,0E0,3.5314453E1,3.085313E1,3.3745968E1,0E0,1.58177185E1,8.589321E0,2.0468151E1,2.1903788E1,5.503662E0,0E0,0E0,0E0,0E0,0E0,0E0,0E0,0E0,0E0,0E0,0E0,0E0,0E0,0E0,0E0,0E0,0E0,0E0,0E0,0E0,0E0,0E0,0E0,0E0,0E0,0E0,0E0,0E0,0E0,0E0,0E0,0E0,0E0,0E0,0E0,0E0,0E0,0E0,0E0,0E0,0E0,0E0,0E0,0E0,0E0,0E0,0E0,0E0,0E0,0E0,0E0,0E0,0E0,0E0,0E0,0E0,0E0],"parents":[2147483647,0,0,1,1,2,2,3,3,4,4,5,5,6,6,7,7,8,8,9,9,10,10,11,11,12,12,13,13,14,14,15,15,16,16,17,17,18,18,19,19,20,20,21,21,22,22,23,23,24,24,25,25,26,26,27,27,28,28,29,29,30,30,31,31,32,32,33,33,34,34,35,35,36,36,37,37,38,38,39,39,40,40,41,41,42,42,43,43,44,44,45,45,46,46,47,47,48,48,49,49,51,51,52,52,53,53,55,55,56,56,57,57,58,58,59,59],"right_children":[2,4,6,8,10,12,14,16,18,20,22,24,26,28,30,32,34,36,38,40,42,44,46,48,50,52,54,56,58,60,62,64,66,68,70,72,74,76,78,80,82,84,86,88,90,92,94,96,98,100,-1,102,104,106,-1,108,110,112,114,116,-1,-1,-1,-1,-1,-1,-1,-1,-1,-1,-1,-1,-1,-1,-1,-1,-1,-1,-1,-1,-1,-1,-1,-1,-1,-1,-1,-1,-1,-1,-1,-1,-1,-1,-1,-1,-1,-1,-1,-1,-1,-1,-1,-1,-1,-1,-1,-1,-1,-1,-1,-1,-1,-1,-1,-1,-1],"split_conditions":[1.1718874E-1,3.3941907E-1,6.495268E-1,2.3900187E-1,7.925017E-2,5.668567E-2,2.531203E-1,7.0133364E-1,1.1934472E-1,4.2322883E-1,5.771301E-1,6.498019E-1,5.959773E-1,5.876016E-1,1.5614755E0,7.416823E-2,8.398196E-1,6.0863593E-3,8.2593404E-2,1.9286666E0,3.7722199E-3,5.019656E-1,6.156684E-2,3.735192E-4,1.5019348E0,1.3340032E-1,2.0474245E-1,1.110103E0,4.2387024E-1,2.0535407E0,6.6647604E-2,9.1353655E-1,9.179052E-1,4.0776318E-1,1.12197995E-1,4.6628213E-1,7.26892E-1,2.4305822E-1,3.1438932E-1,1.8118236E0,5.886701E-4,3.729259E-2,7.826851E-1,3.6497673E-1,1.248799E0,1.4932486E0,5.130051E-1,6.3297205E-2,1.1855674E0,1.1695969E0,4.1891236E-2,2.8325304E-2,3.6810124E-1,4.397157E-2,-4.6871297E-2,1.8972127E0,1.7144608E-1,6.340391E-1,1.1424924E-1,2.5489228E0,2.6294373E-2,5.0501484E-2,-3.1903535E-2,-2.0754902E-2,1.9973354E-2,2.9646873E-2,-3.663813E-2,6.1853163E-2,1.3215424E-2,1.1913667E-2,-3.4293696E-2,3.246712E-2,-2.9532697E-2,5.732923E-2,-2.3228295E-2,2.0280588E-2,-4.3980952E-2,4.1839793E-2,-1.1743073E-2,-4.6839524E-2,1.2979159E-2,4.8870802E-2,-3.724551E-2,6.632249E-4,6.4011164E-2,-4.2453602E-2,3.471328E-2,4.41528E-2,-1.2997279E-4,-3.6532E-2,3.2705966E-2,-4.3465536E-2,2.6545804E-2,-2.1585112E-2,4.9062602E-2,-3.7136532E-2,3.246334E-2,4.4990804E-2,-1.2332978E-2,-4.533061E-2,1.2465701E-2,-3.342749E-2,2.0247795E-2,-3.490012E-2,-3.8458907E-6,2.760454E-2,-4.381885E-2,-4.0181816E-2,2.5701588E-2,-2.5695587E-2,5.362632E-2,-4.081305E-2,2.4565987E-2,-3.341439E-2,5.5685326E-2,-4.597046E-2,1.2591449E-2],"split_indices":[208,1172,445,238,950,213,219,658,1181,1198,735,1172,219,1054,76,1192,41,557,1239,236,1182,611,603,69,699,41,231,378,812,281,98,216,1252,691,100,198,871,424,1020,507,352,280,442,456,618,579,1001,1264,374,911,0,216,565,570,0,1186,37,1164,1106,390,0,0,0,0,0,0,0,0,0,0,0,0,0,0,0,0,0,0,0,0,0,0,0,0,0,0,0,0,0,0,0,0,0,0,0,0,0,0,0,0,0,0,0,0,0,0,0,0,0,0,0,0,0,0,0,0,0],"split_type":[0,0,0,0,0,0,0,0,0,0,0,0,0,0,0,0,0,0,0,0,0,0,0,0,0,0,0,0,0,0,0,0,0,0,0,0,0,0,0,0,0,0,0,0,0,0,0,0,0,0,0,0,0,0,0,0,0,0,0,0,0,0,0,0,0,0,0,0,0,0,0,0,0,0,0,0,0,0,0,0,0,0,0,0,0,0,0,0,0,0,0,0,0,0,0,0,0,0,0,0,0,0,0,0,0,0,0,0,0,0,0,0,0,0,0,0,0],"sum_hessian":[1.7347062E3,8.840376E2,8.506685E2,6.4991125E2,2.3412637E2,3.5420392E2,4.964646E2,2.6365054E2,3.8626068E2,7.4410965E1,1.5971541E2,1.0616512E2,2.480388E2,1.3263373E2,3.6383087E2,2.0506761E2,5.858293E1,3.121314E2,7.4129295E1,5.773733E1,1.667363E1,1.1078739E2,4.8928017E1,8.88224E1,1.7342718E1,1.6555269E2,8.248611E1,9.560493E1,3.7028812E1,3.5993094E2,3.899928E0,7.6791176E1,1.2827644E2,5.514249E1,3.4404433E0,3.680055E1,2.7533084E2,1.6385973E1,5.774332E1,5.2392574E1,5.344756E0,6.416061E0,1.025757E1,9.159153E1,1.9195866E1,2.9159151E1,1.9768866E1,1.6207882E1,7.2614525E1,1.6119686E1,1.2230318E0,7.2945564E1,9.260713E1,2.188977E1,6.059634E1,9.1985634E1,3.619287E0,2.2058027E1,1.4970783E1,3.5824188E2,1.6890616E0,1.8152081E0,2.08472E0,5.59607E1,2.0830471E1,1.1892251E2,9.353929E0,4.67938E1,8.348691E0,1.0750189E0,2.3654244E0,3.1239159E1,5.5613914E0,2.714152E2,3.915664E0,7.395388E0,8.990585E0,4.711881E1,1.0624514E1,5.133357E1,1.0590069E0,1.8413316E0,3.5034244E0,1.5474447E0,4.868616E0,7.94083E0,2.3167396E0,6.489536E1,2.6696165E1,1.5825321E1,3.3705432E0,2.7473383E1,1.685768E0,1.2466309E1,7.302557E0,1.0031704E1,6.1761785E0,6.603194E1,6.5825877E0,1.5052543E1,1.0671445E0,1.2504549E1,6.0441013E1,5.3292187E1,3.9314945E1,1.0690715E1,1.1199055E1,8.922736E1,2.7582722E0,1.1666937E0,2.4525933E0,1.714609E1,4.9119387E0,2.3329341E0,1.2637849E1,3.571768E2,1.0650954E0],"tree_param":{"num_deleted":"0","num_feature":"1280","num_nodes":"117","size_leaf_vector":"1"}},{"base_weights":[-2.1918728E-3,8.1727827E-1,-8.083113E-1,1.1880125E0,-2.6783067E-1,-8.613767E-2,-1.192331E0,1.4854242E0,4.921454E-1,4.0778807E-1,-7.8296584E-1,-2.8935894E-1,1.4675919E0,-5.9888464E-1,-1.3766949E0,1.5972589E0,-2.3969512E-1,-1.539765E-2,1.2627449E0,-3.0364868E-1,9.0007347E-1,-1.0343567E0,4.9086753E-1,-9.289363E-1,1.16222486E-1,1.7300876E0,-7.2372144E-1,-1.2777787E0,-7.80982E-2,-7.53479E-1,-1.4396939E0,1.1808124E0,1.8563472E0,-1.3255847E0,6.5421563E-1,6.534084E-1,-5.9283704E-1,1.4129574E0,-3.8723726E-2,5.0102633E-1,-1.0476711E0,1.1146389E0,-9.7671515E-1,-1.343291E0,-3.477532E-1,1.0333935E0,-3.868856E-2,1.8617496E-1,-1.210143E0,5.204023E-1,-6.0592693E-1,1.8853276E0,-2.838227E-2,1.0790052E-2,-3.5305895E-2,9.523085E-2,-1.4771545E0,-5.903994E-1,1.344675E0,-1.2685018E0,6.012706E-1,-1.4576286E0,-9.768017E-2,3.956554E-2,-1.2287597E-2,5.759257E-2,-8.1789335E-3,-4.5483306E-2,1.2668328E-2,4.3511115E-2,-1.9760389E-2,3.984686E-2,-3.6766964E-3,9.859639E-3,-3.233564E-2,4.947632E-2,4.7276905E-4,4.019905E-2,-3.176603E-2,1.7813718E-2,-4.5251153E-2,4.636519E-2,5.939968E-3,-3.9892063E-2,1.1741939E-2,-4.2323176E-2,3.4675356E-2,3.9510325E-2,-2.5825728E-2,-3.477314E-2,4.534343E-2,-3.626434E-2,3.9221488E-2,-3.87946E-2,4.1949175E-2,-1.9043846E-2,2.3157656E-2,-2.8945064E-2,1.7018529E-2,-4.6978276E-3,6.058552E-2,4.3089677E-2,-3.7828654E-2,-4.576094E-2,1.2864513E-2,-4.1845705E-2,-9.00097E-4,-3.570765E-2,5.60342E-2,-4.5275424E-2,3.056733E-2,-3.6158495E-2,4.3385558E-2,-4.4280317E-2,-1.3039547E-2,5.028807E-2,-3.6072467E-2],"categories":[],"categories_nodes":[],"categories_segments":[],"categories_sizes":[],"default_left":[0,0,0,0,0,0,0,0,0,0,0,0,0,0,0,0,0,0,0,0,0,0,0,0,0,0,0,0,0,0,0,0,0,0,0,0,0,0,0,0,0,0,0,0,0,0,0,0,0,0,0,0,0,0,0,0,0,0,0,0,0,0,0,0,0,0,0,0,0,0,0,0,0,0,0,0,0,0,0,0,0,0,0,0,0,0,0,0,0,0,0,0,0,0,0,0,0,0,0,0,0,0,0,0,0,0,0,0,0,0,0,0,0,0,0,0,0],"id":3,"left_children":[1,3,5,7,9,11,13,15,17,19,21,23,25,27,29,31,33,35,37,39,41,43,45,47,49,51,53,55,57,59,61,63,65,67,69,71,73,75,-1,77,79,81,83,85,87,89,-1,91,93,95,97,99,-1,-1,-1,101,103,105,107,109,111,113,115,-1,-1,-1,-1,-1,-1,-1,-1,-1,-1,-1,-1,-1,-1,-1,-1,-1,-1,-1,-1,-1,-1,-1,-1,-1,-1,-1,-1,-1,-1,-1,-1,-1,-1,-1,-1,-1,-1,-1,-1,-1,-1,-1,-1,-1,-1,-1,-1,-1,-1,-1,-1,-1,-1],"loss_changes":[1.1438843E3,3.4575995E2,2.4198138E2,1.3176617E2,7.670769E1,9.644875E1,6.1517395E1,8.681854E1,7.557838E1,3.375859E1,4.049659E1,7.008724E1,2.1580368E1,4.827746E1,1.5953857E1,4.3218872E1,2.8187452E1,4.5751064E1,3.125409E1,2.4382399E1,2.3945751E1,2.172332E1,2.1869389E1,3.308767E1,4.8759613E1,1.5017731E1,2.625399E0,1.6382812E1,5.800891E1,3.002492E1,9.3172E0,3.6580765E1,3.5310974E1,4.9821854E0,1.7791218E1,2.8911224E1,2.87625E1,2.4051422E1,0E0,2.7357422E1,1.6797787E1,1.9996006E1,3.5904102E0,1.3739655E1,3.0017017E1,1.941329E1,0E0,3.5946434E1,1.9959007E1,3.1565691E1,2.5820889E1,8.657661E0,0E0,0E0,0E0,1.720298E1,5.420334E0,2.6290098E1,3.0186161E1,1.8443935E1,2.0411472E1,6.6503296E0,1.427379E1,0E0,0E0,0E0,0E0,0E0,0E0,0E0,0E0,0E0,0E0,0E0,0E0,0E0,0E0,0E0,0E0,0E0,0E0,0E0,0E0,0E0,0E0,0E0,0E0,0E0,0E0,0E0,0E0,0E0,0E0,0E0,0E0,0E0,0E0,0E0,0E0,0E0,0E0,0E0,0E0,0E0,0E0,0E0,0E0,0E0,0E0,0E0,0E0,0E0,0E0,0E0,0E0,0E0,0E0],"parents":[2147483647,0,0,1,1,2,2,3,3,4,4,5,5,6,6,7,7,8,8,9,9,10,10,11,11,12,12,13,13,14,14,15,15,16,16,17,17,18,18,19,19,20,20,21,21,22,22,23,23,24,24,25,25,26,26,27,27,28,28,29,29,30,30,31,31,32,32,33,33,34,34,35,35,36,36,37,37,39,39,40,40,41,41,42,42,43,43,44,44,45,45,47,47,48,48,49,49,50,50,51,51,55,55,56,56,57,57,58,58,59,59,60,60,61,61,62,62],"right_children":[2,4,6,8,10,12,14,16,18,20,22,24,26,28,30,32,34,36,38,40,42,44,46,48,50,52,54,56,58,60,62,64,66,68,70,72,74,76,-1,78,80,82,84,86,88,90,-1,92,94,96,98,100,-1,-1,-1,102,104,106,108,110,112,114,116,-1,-1,-1,-1,-1,-1,-1,-1,-1,-1,-1,-1,-1,-1,-1,-1,-1,-1,-1,-1,-1,-1,-1,-1,-1,-1,-1,-1,-1,-1,-1,-1,-1,-1,-1,-1,-1,-1,-1,-1,-1,-1,-1,-1,-1,-1,-1,-1,-1,-1,-1,-1,-1,-1],"split_conditions":[2.491614E-1,4.044907E-1,4.453571E-1,1.0801324E-1,6.5843105E-2,9.950173E-1,5.9832476E-2,3.7812403E-1,3.999947E-1,1.20223835E-1,8.600349E-1,1.7756024E-2,2.4173597E-1,7.7586174E-2,5.1056717E-2,1.7969579E-1,2.8996593E-1,3.7124217E-2,1.3914155E0,1.3306598E-2,1.1562656E0,3.2981008E-1,7.1284527E-1,7.303534E-2,3.6933973E-1,6.8529934E-1,1.2628984E-2,5.697105E-1,1.3872436E0,3.52644E-1,1.8261915E0,2.590085E-1,8.0022067E-1,1.203337E0,6.3732984E-3,1.0543387E-1,6.203372E-2,5.8253294E-1,-3.8723726E-2,4.7803245E-2,9.706458E-4,2.5760564E-1,1.5642222E0,1.8149987E0,3.8869042E-4,4.500433E-2,-3.868856E-2,1.1608457E-1,1.0478985E0,4.4947155E-3,4.1310218E-1,6.281765E-2,-2.838227E-2,1.0790052E-2,-3.5305895E-2,5.9030496E-4,1.3027563E0,1.8495074E-2,6.4097844E-2,1.7666321E0,1.6481817E-1,1.4019108E0,5.294284E-3,3.956554E-2,-1.2287597E-2,5.759257E-2,-8.1789335E-3,-4.5483306E-2,1.2668328E-2,4.3511115E-2,-1.9760389E-2,3.984686E-2,-3.6766964E-3,9.859639E-3,-3.233564E-2,4.947632E-2,4.7276905E-4,4.019905E-2,-3.176603E-2,1.7813718E-2,-4.5251153E-2,4.636519E-2,5.939968E-3,-3.9892063E-2,1.1741939E-2,-4.2323176E-2,3.4675356E-2,3.9510325E-2,-2.5825728E-2,-3.477314E-2,4.534343E-2,-3.626434E-2,3.9221488E-2,-3.87946E-2,4.1949175E-2,-1.9043846E-2,2.3157656E-2,-2.8945064E-2,1.7018529E-2,-4.6978276E-3,6.058552E-2,4.3089677E-2,-3.7828654E-2,-4.576094E-2,1.2864513E-2,-4.1845705E-2,-9.00097E-4,-3.570765E-2,5.60342E-2,-4.5275424E-2,3.056733E-2,-3.6158495E-2,4.3385558E-2,-4.4280317E-2,-1.3039547E-2,5.028807E-2,-3.6072467E-2],"split_indices":[534,735,445,446,445,238,446,1181,658,200,233,1192,1025,259,126,658,262,242,1097,182,500,259,1258,1208,729,466,71,445,257,212,537,412,195,979,446,806,445,944,0,412,475,410,117,1053,381,600,0,434,440,728,1215,394,0,0,0,1200,818,144,981,525,1239,695,314,0,0,0,0,0,0,0,0,0,0,0,0,0,0,0,0,0,0,0,0,0,0,0,0,0,0,0,0,0,0,0,0,0,0,0,0,0,0,0,0,0,0,0,0,0,0,0,0,0,0,0,0,0,0],"split_type":[0,0,0,0,0,0,0,0,0,0,0,0,0,0,0,0,0,0,0,0,0,0,0,0,0,0,0,0,0,0,0,0,0,0,0,0,0,0,0,0,0,0,0,0,0,0,0,0,0,0,0,0,0,0,0,0,0,0,0,0,0,0,0,0,0,0,0,0,0,0,0,0,0,0,0,0,0,0,0,0,0,0,0,0,0,0,0,0,0,0,0,0,0,0,0,0,0,0,0,0,0,0,0,0,0,0,0,0,0,0,0,0,0,0,0,0,0],"sum_hessian":[1.7296082E3,8.576947E2,8.7191345E2,6.3920984E2,2.1848483E2,3.0311343E2,5.688E2,4.4702002E2,1.921898E2,9.460945E1,1.2387538E2,2.6877286E2,3.4340588E1,1.358294E2,4.3297058E2,4.1987482E2,2.714522E1,1.164632E2,7.57266E1,3.884907E1,5.576038E1,1.03614975E2,2.0260406E1,1.037985E2,1.6497435E2,3.0854975E1,3.4856138E0,5.8333138E1,7.749628E1,4.093934E1,3.9203122E2,1.6316635E2,2.5670847E2,1.2038451E1,1.5106768E1,5.390148E1,6.2561726E1,7.19413E1,3.7853022E0,1.8820704E1,2.0028368E1,5.040399E1,5.356387E0,7.080165E1,3.281332E1,1.5850312E1,4.410095E0,2.09722E1,8.28263E1,1.0595293E2,5.9021423E1,2.944257E1,1.4124054E0,1.0887835E0,2.39683E0,7.462776E0,5.087036E1,5.7409676E1,2.0086597E1,2.9708858E1,1.1230481E1,3.867762E2,5.2550087E0,1.5029243E2,1.2873921E1,2.4937973E2,7.3287344E0,1.0974743E1,1.0637084E0,9.338862E0,5.7679057E0,2.8449005E1,2.5452475E1,2.168482E1,4.0876907E1,6.138183E1,1.0559471E1,1.2330242E1,6.490461E0,4.3260183E0,1.5702349E1,3.3820557E1,1.6583437E1,4.2800407E0,1.0763462E0,6.936418E1,1.4374716E0,7.361672E0,2.5451649E1,2.5823333E0,1.3267979E1,9.3103285E0,1.1661872E1,8.076045E1,2.065851E0,1.8671818E1,8.7281105E1,4.5331295E1,1.3690129E1,1.805278E0,2.7637291E1,3.7225592E0,3.740217E0,4.9810143E1,1.0602219E0,2.2960484E1,3.4449192E1,3.217991E0,1.6868607E1,2.7188354E1,2.5205045E0,3.442783E0,7.7876983E0,3.7951385E2,7.2623796E0,1.818143E0,3.4368656E0],"tree_param":{"num_deleted":"0","num_feature":"1280","num_nodes":"117","size_leaf_vector":"1"}},{"base_weights":[1.1604134E-4,7.457634E-1,-8.701527E-1,3.6235985E-1,1.4565941E0,-1.3613515E-1,-1.2312819E0,7.772932E-1,-2.2454928E-1,1.7577711E0,8.170992E-1,4.1835845E-1,-7.648413E-1,4.087141E-2,-1.3139211E0,1.0412691E0,-5.5025026E-2,3.5993642E-1,-6.559734E-1,1.8480818E0,4.2104656E-1,9.968E-1,-9.644611E-1,8.266944E-1,-7.402031E-1,-6.843773E-2,-1.2332088E0,1.012E0,-1.126847E0,-1.0431955E0,-1.4697391E0,5.560301E-1,1.482506E0,-8.7241405E-1,3.6912358E-1,1.3095737E0,2.5261004E-2,3.3979765E-1,-9.572761E-1,1.887974E0,-6.237453E-1,-1.0520118E0,1.40658E0,1.5958933E0,4.8274583E-1,3.9344598E-2,-4.285138E-2,1.3489269E0,9.161399E-2,-1.0100726E0,1.1797879E0,3.381993E-1,-1.2600964E0,-1.355708E0,6.88989E-1,1.6706318E0,-8.563376E-1,-4.311298E-2,2.7887516E-2,-4.404108E-1,-1.3532921E0,-1.4851853E0,9.298038E-2,-8.8745053E-4,3.0421475E-2,4.6935663E-2,-1.6220745E-2,-4.5228165E-2,6.5433937E-3,-2.5300093E-2,2.7039487E-2,4.7346238E-2,-3.3938468E-2,9.971894E-3,-2.997827E-2,-3.492592E-2,2.6466746E-2,-5.621919E-3,-3.8885985E-2,5.8465954E-2,2.4583172E-2,-3.3504214E-2,1.1040759E-2,-4.155171E-2,1.0104803E-2,5.831976E-2,-2.917242E-2,5.32404E-2,-1.8963428E-2,2.9670246E-2,-1.760451E-2,4.5141194E-2,-2.2542331E-2,1.8001448E-2,-4.3067835E-2,-3.6217663E-2,3.3452008E-2,5.17085E-2,-5.62137E-4,2.8101733E-2,-2.2592269E-2,1.1998906E-2,-4.3210477E-2,-4.375491E-2,2.9361445E-2,5.2864294E-2,-2.9595783E-2,6.0468297E-2,-2.7035877E-2,-3.695892E-2,1.0927298E-2,1.8710365E-3,-3.811936E-2,-4.2301908E-2,1.319288E-3,-4.4791885E-2,1.2763375E-2,-3.0211786E-2,4.416744E-2],"categories":[],"categories_nodes":[],"categories_segments":[],"categories_sizes":[],"default_left":[0,0,0,0,0,0,0,0,0,0,0,0,0,0,0,0,0,0,0,0,0,0,0,0,0,0,0,0,0,0,0,0,0,0,0,0,0,0,0,0,0,0,0,0,0,0,0,0,0,0,0,0,0,0,0,0,0,0,0,0,0,0,0,0,0,0,0,0,0,0,0,0,0,0,0,0,0,0,0,0,0,0,0,0,0,0,0,0,0,0,0,0,0,0,0,0,0,0,0,0,0,0,0,0,0,0,0,0,0,0,0,0,0,0,0,0,0,0,0],"id":4,"left_children":[1,3,5,7,9,11,13,15,17,19,21,23,25,27,29,31,33,35,37,39,41,43,45,47,49,51,53,55,57,59,61,63,65,67,69,71,73,75,77,79,81,83,85,87,89,-1,-1,91,93,95,97,99,101,103,105,107,109,-1,-1,111,113,115,117,-1,-1,-1,-1,-1,-1,-1,-1,-1,-1,-1,-1,-1,-1,-1,-1,-1,-1,-1,-1,-1,-1,-1,-1,-1,-1,-1,-1,-1,-1,-1,-1,-1,-1,-1,-1,-1,-1,-1,-1,-1,-1,-1,-1,-1,-1,-1,-1,-1,-1,-1,-1,-1,-1,-1,-1],"loss_changes":[1.1187668E3,2.5252411E2,2.1071289E2,1.4738875E2,6.1160156E1,9.216577E1,5.609729E1,7.791478E1,6.3564938E1,2.5789917E1,3.4873474E1,6.71457E1,4.0302742E1,3.9114876E1,1.9584229E1,5.678833E1,3.0233536E1,3.406856E1,4.3783104E1,2.147638E1,2.3579514E1,2.9013824E1,1.2657542E1,3.9977043E1,2.045551E1,2.506604E1,1.8352242E1,2.4576408E1,1.1338488E1,3.4230774E1,7.748413E0,3.4832493E1,2.4131958E1,2.0951721E1,3.7865448E1,2.0106213E1,2.56184E1,2.9078499E1,2.884056E1,1.1600403E1,2.3773813E0,3.5536647E0,1.4098286E1,1.8739685E1,2.9540955E1,0E0,0E0,2.1089027E1,3.538488E1,1.5231247E1,3.3192592E0,2.5982677E1,4.5105095E0,1.819487E1,1.0899267E1,1.4455631E1,2.9995518E0,0E0,0E0,2.7116934E1,9.782898E0,5.335022E0,7.5924816E0,0E0,0E0,0E0,0E0,0E0,0E0,0E0,0E0,0E0,0E0,0E0,0E0,0E0,0E0,0E0,0E0,0E0,0E0,0E0,0E0,0E0,0E0,0E0,0E0,0E0,0E0,0E0,0E0,0E0,0E0,0E0,0E0,0E0,0E0,0E0,0E0,0E0,0E0,0E0,0E0,0E0,0E0,0E0,0E0,0E0,0E0,0E0,0E0,0E0,0E0,0E0,0E0,0E0,0E0,0E0,0E0],"parents":[2147483647,0,0,1,1,2,2,3,3,4,4,5,5,6,6,7,7,8,8,9,9,10,10,11,11,12,12,13,13,14,14,15,15,16,16,17,17,18,18,19,19,20,20,21,21,22,22,23,23,24,24,25,25,26,26,27,27,28,28,29,29,30,30,31,31,32,32,33,33,34,34,35,35,36,36,37,37,38,38,39,39,40,40,41,41,42,42,43,43,44,44,47,47,48,48,49,49,50,50,51,51,52,52,53,53,54,54,55,55,56,56,59,59,60,60,61,61,62,62],"right_children":[2,4,6,8,10,12,14,16,18,20,22,24,26,28,30,32,34,36,38,40,42,44,46,48,50,52,54,56,58,60,62,64,66,68,70,72,74,76,78,80,82,84,86,88,90,-1,-1,92,94,96,98,100,102,104,106,108,110,-1,-1,112,114,116,118,-1,-1,-1,-1,-1,-1,-1,-1,-1,-1,-1,-1,-1,-1,-1,-1,-1,-1,-1,-1,-1,-1,-1,-1,-1,-1,-1,-1,-1,-1,-1,-1,-1,-1,-1,-1,-1,-1,-1,-1,-1,-1,-1,-1,-1,-1,-1,-1,-1,-1,-1,-1,-1,-1,-1,-1],"split_conditions":[3.7114233E-1,6.6088146E-1,1.5307738E-1,1.8557303E-1,1.9396436E-1,9.2323944E-2,1.1348578E-2,1.9598413E-1,4.733551E-2,6.631704E-1,8.0772805E-1,3.6401674E-1,1.6147067E-1,2.0121582E-1,2.4445553E-1,2.1678747E-1,2.4385657E-2,4.4336934E-2,2.0824549E-1,1.0028663E0,1.8069209E-1,1.501649E-1,4.5823758E-3,2.4454343E-1,9.260074E-1,4.422746E-1,1.0230504E0,5.07606E-2,1.8163457E0,6.096202E-1,9.9421126E-1,6.239203E-2,6.957344E-1,1.4193407E-1,1.1380653E-2,7.4180955E-1,4.5071375E-1,7.7916164E-4,3.6110897E-2,1.5541866E0,6.8782054E-2,2.1904554E0,6.006688E-1,9.952303E-1,1.3074787E-1,3.9344598E-2,-4.285138E-2,1.0880332E0,3.7988245E-1,1.4538559E0,1.739174E-1,4.598223E-1,1.3656616E-3,1.511501E0,6.307388E-4,5.877311E-1,8.0557704E-1,-4.311298E-2,2.7887516E-2,4.54913E-1,1.4437338E0,2.2524946E0,6.086915E-1,-8.8745053E-4,3.0421475E-2,4.6935663E-2,-1.6220745E-2,-4.5228165E-2,6.5433937E-3,-2.5300093E-2,2.7039487E-2,4.7346238E-2,-3.3938468E-2,9.971894E-3,-2.997827E-2,-3.492592E-2,2.6466746E-2,-5.621919E-3,-3.8885985E-2,5.8465954E-2,2.4583172E-2,-3.3504214E-2,1.1040759E-2,-4.155171E-2,1.0104803E-2,5.831976E-2,-2.917242E-2,5.32404E-2,-1.8963428E-2,2.9670246E-2,-1.760451E-2,4.5141194E-2,-2.2542331E-2,1.8001448E-2,-4.3067835E-2,-3.6217663E-2,3.3452008E-2,5.17085E-2,-5.62137E-4,2.8101733E-2,-2.2592269E-2,1.1998906E-2,-4.3210477E-2,-4.375491E-2,2.9361445E-2,5.2864294E-2,-2.9595783E-2,6.0468297E-2,-2.7035877E-2,-3.695892E-2,1.0927298E-2,1.8710365E-3,-3.811936E-2,-4.2301908E-2,1.319288E-3,-4.4791885E-2,1.2763375E-2,-3.0211786E-2,4.416744E-2],"split_indices":[445,238,219,729,954,446,732,1181,208,1021,744,22,644,1172,811,658,1192,109,345,888,1197,756,920,534,669,1129,669,1134,675,219,899,868,171,754,212,235,6,45,348,1143,11,1142,723,241,542,0,0,277,56,1068,40,455,926,950,320,399,396,0,0,888,388,287,0,0,0,0,0,0,0,0,0,0,0,0,0,0,0,0,0,0,0,0,0,0,0,0,0,0,0,0,0,0,0,0,0,0,0,0,0,0,0,0,0,0,0,0,0,0,0,0,0,0,0,0,0,0,0,0,0],"split_type":[0,0,0,0,0,0,0,0,0,0,0,0,0,0,0,0,0,0,0,0,0,0,0,0,0,0,0,0,0,0,0,0,0,0,0,0,0,0,0,0,0,0,0,0,0,0,0,0,0,0,0,0,0,0,0,0,0,0,0,0,0,0,0,0,0,0,0,0,0,0,0,0,0,0,0,0,0,0,0,0,0,0,0,0,0,0,0,0,0,0,0,0,0,0,0,0,0,0,0,0,0,0,0,0,0,0,0,0,0,0,0,0,0,0,0,0,0,0,0],"sum_hessian":[1.7220613E3,9.275114E2,7.945499E2,6.0350586E2,3.2400555E2,2.624602E2,5.320897E2,3.5336163E2,2.501442E2,2.1907916E2,1.049264E2,1.3963889E2,1.2282131E2,3.248708E1,4.9960263E2,2.6808536E2,8.527629E1,1.0629854E2,1.4384566E2,2.048563E2,1.4222869E1,9.571264E1,9.213763E0,1.0346056E2,3.6178318E1,4.9848686E1,7.2972626E1,1.7809353E1,1.4677727E1,1.8531766E2,3.1428497E2,1.2875287E2,1.3933249E2,2.8772028E1,5.6504265E1,2.6940954E1,7.935758E1,3.338484E1,1.1046082E2,2.0183513E2,3.021166E0,5.6742373E0,8.548631E0,4.3228455E1,5.2484184E1,1.2507422E0,7.963021E0,5.999938E1,4.346119E1,3.2135365E1,4.0429554E0,3.7700207E1,1.21484785E1,6.887784E1,4.094788E0,1.3245744E1,4.5636086E0,1.3015288E1,1.6624389E0,6.3772682E1,1.2154497E2,3.1125806E2,3.0269184E0,5.6916397E1,7.1836464E1,1.3412218E2,5.2103205E0,1.794012E1,1.0831908E1,1.7057842E1,3.9446423E1,2.4588255E1,2.3526998E0,6.1574387E1,1.7783197E1,8.545194E0,2.4839643E1,3.4238827E1,7.6222E1,1.9017406E2,1.166107E1,1.9337313E0,1.0874349E0,4.5789285E0,1.0953091E0,7.1225147E0,1.4261165E0,4.0205616E1,3.0228372E0,3.5673805E1,1.6810377E1,5.612057E1,3.8788073E0,3.3061527E1,1.0399662E1,2.980207E1,2.3332925E0,2.479688E0,1.5632677E0,2.4438301E1,1.3261907E1,1.0705168E0,1.1077962E1,6.633232E1,2.5455177E0,2.464557E0,1.6302314E0,1.1869829E1,1.3759149E0,3.482549E0,1.0810596E0,4.0295288E1,2.3477396E1,1.1679057E2,4.754399E0,3.1019766E2,1.0604035E0,1.8340358E0,1.1928828E0],"tree_param":{"num_deleted":"0","num_feature":"1280","num_nodes":"119","size_leaf_vector":"1"}},{"base_weights":[6.3060177E-3,5.904996E-1,-1.0387254E0,8.906079E-1,-4.2878866E-1,-1.1623429E0,6.4229405E-1,1.1770082E0,4.4487312E-2,-8.353129E-3,-9.425094E-1,-4.0172628E-1,-1.3137959E0,-7.220626E-1,1.240591E0,1.4351618E0,6.446251E-1,5.907278E-1,-5.070496E-1,4.8983905E-1,-5.366244E-1,-1.0484455E0,9.559594E-1,4.3818727E-1,-1.0143839E0,-9.2235297E-1,-1.412086E0,-4.1953705E-2,1.0288514E0,1.7783465E0,-1.2677084E-1,1.5104567E0,-5.070827E-1,1.0733323E0,1.3908462E-1,8.6568177E-1,-5.869375E-1,-9.374847E-1,2.4576983E-1,9.021999E-1,-7.1372116E-1,6.711325E-1,-8.619558E-1,1.9291337E-1,-1.2154075E0,5.7804603E-2,-2.995483E-2,-6.7342097E-1,1.0814881E0,7.441389E-2,-4.4416834E-2,-1.0671568E0,9.843347E-1,-1.4245442E0,2.1072177E-2,4.783956E-2,-1.7635078E-4,1.9974302E0,-2.6356714E-2,-3.9090224E-2,1.1596389E0,4.8253585E-2,1.0243073E-2,-3.435933E-2,4.6779417E-2,4.714481E-2,1.1727786E-2,2.231895E-2,-1.7856685E-2,3.2167003E-2,-2.2317072E-2,-3.9697345E-2,2.8998667E-2,-4.107508E-2,-4.5932215E-3,3.8161866E-2,-2.1098357E-2,3.3983536E-2,-2.8981568E-2,-3.8856175E-2,2.6114441E-2,-3.7106764E-2,4.194443E-2,-3.1417366E-2,3.1685233E-2,-3.0729895E-2,4.208773E-2,-9.018098E-3,-4.1939076E-2,-3.7019752E-2,4.0125504E-2,4.7434613E-2,-1.8294854E-2,-3.360914E-2,4.0036622E-2,-3.5416428E-2,2.8377743E-2,5.7551235E-2,-3.0866213E-2,-4.311424E-2,3.7093025E-3,6.618812E-2,-2.4636803E-2,5.0324656E-2,-1.7186158E-4],"categories":[],"categories_nodes":[],"categories_segments":[],"categories_sizes":[],"default_left":[0,0,0,0,0,0,0,0,0,0,0,0,0,0,0,0,0,0,0,0,0,0,0,0,0,0,0,0,0,0,0,0,0,0,0,0,0,0,0,0,0,0,0,0,0,0,0,0,0,0,0,0,0,0,0,0,0,0,0,0,0,0,0,0,0,0,0,0,0,0,0,0,0,0,0,0,0,0,0,0,0,0,0,0,0,0,0,0,0,0,0,0,0,0,0,0,0,0,0,0,0,0,0,0,0],"id":5,"left_children":[1,3,5,7,9,11,13,15,17,19,21,23,25,27,29,31,33,35,37,39,41,43,45,47,49,51,53,-1,55,57,59,61,63,65,67,69,71,73,75,77,79,81,83,85,87,-1,-1,89,91,93,-1,95,97,99,-1,-1,-1,101,-1,-1,103,-1,-1,-1,-1,-1,-1,-1,-1,-1,-1,-1,-1,-1,-1,-1,-1,-1,-1,-1,-1,-1,-1,-1,-1,-1,-1,-1,-1,-1,-1,-1,-1,-1,-1,-1,-1,-1,-1,-1,-1,-1,-1,-1,-1],"loss_changes":[1.0534143E3,3.3894037E2,1.2931757E2,2.0722455E2,5.4511494E1,6.590546E1,3.601748E1,8.689758E1,6.578013E1,3.7061428E1,2.3848633E1,5.0462677E1,1.7184265E1,1.7720879E1,2.2488914E1,6.3579407E1,4.5469078E1,3.601636E1,3.5449463E1,3.6617157E1,2.743065E1,2.2633232E1,1.43087225E1,3.054483E1,2.8791264E1,2.8471611E1,1.1068054E1,0E0,2.5895758E0,1.4443039E1,1.5855329E1,4.6848877E1,2.3913828E1,3.8054596E1,4.3854298E1,3.0488953E1,2.5704178E1,2.3275127E1,4.0175842E1,2.4541294E1,1.868063E1,2.2626122E1,2.0396091E1,2.1579039E1,1.5511627E1,0E0,0E0,1.957497E1,2.360846E1,2.8432642E1,0E0,2.2296738E1,1.613422E1,7.593811E0,0E0,0E0,0E0,1.3845535E1,0E0,0E0,3.0614486E0,0E0,0E0,0E0,0E0,0E0,0E0,0E0,0E0,0E0,0E0,0E0,0E0,0E0,0E0,0E0,0E0,0E0,0E0,0E0,0E0,0E0,0E0,0E0,0E0,0E0,0E0,0E0,0E0,0E0,0E0,0E0,0E0,0E0,0E0,0E0,0E0,0E0,0E0,0E0,0E0,0E0,0E0,0E0,0E0],"parents":[2147483647,0,0,1,1,2,2,3,3,4,4,5,5,6,6,7,7,8,8,9,9,10,10,11,11,12,12,13,13,14,14,15,15,16,16,17,17,18,18,19,19,20,20,21,21,22,22,23,23,24,24,25,25,26,26,28,28,29,29,30,30,31,31,32,32,33,33,34,34,35,35,36,36,37,37,38,38,39,39,40,40,41,41,42,42,43,43,44,44,47,47,48,48,49,49,51,51,52,52,53,53,57,57,60,60],"right_children":[2,4,6,8,10,12,14,16,18,20,22,24,26,28,30,32,34,36,38,40,42,44,46,48,50,52,54,-1,56,58,60,62,64,66,68,70,72,74,76,78,80,82,84,86,88,-1,-1,90,92,94,-1,96,98,100,-1,-1,-1,102,-1,-1,104,-1,-1,-1,-1,-1,-1,-1,-1,-1,-1,-1,-1,-1,-1,-1,-1,-1,-1,-1,-1,-1,-1,-1,-1,-1,-1,-1,-1,-1,-1,-1,-1,-1,-1,-1,-1,-1,-1,-1,-1,-1,-1,-1,-1],"split_conditions":[6.792541E-1,4.1261244E-1,9.2804736E-1,4.1872767E-1,2.7562577E-1,6.720292E-2,1.532381E-1,2.7279443E-1,3.291596E-2,2.4278334E-1,1.3319844E0,3.3995718E-2,1.482474E-1,1.2260627E0,1.2669098E-1,9.2499006E-1,7.753598E-2,1.8484166E-1,2.3388466E-1,5.887498E-1,1.440525E-3,7.561139E-3,5.678342E-1,1.0979589E-1,2.0176028E-1,1.2349918E0,8.366654E-1,-4.1953705E-2,4.2188663E-2,1.2060999E0,7.963989E-1,3.9717704E-1,5.186857E-1,1.0937749E-1,3.0924594E-1,7.495163E-1,5.1500624E-1,5.751783E-1,1.3996346E-1,1.0276718E0,1.2703454E-1,2.297489E-2,1.4870024E0,2.0929344E-1,9.6416473E-4,5.7804603E-2,-2.995483E-2,2.6365712E-1,8.702029E-2,3.4157476E-1,-4.4416834E-2,9.150266E-1,2.9851443E-1,2.4607215E0,2.1072177E-2,4.783956E-2,-1.7635078E-4,1.5002087E-1,-2.6356714E-2,-3.9090224E-2,3.1971794E-1,4.8253585E-2,1.0243073E-2,-3.435933E-2,4.6779417E-2,4.714481E-2,1.1727786E-2,2.231895E-2,-1.7856685E-2,3.2167003E-2,-2.2317072E-2,-3.9697345E-2,2.8998667E-2,-4.107508E-2,-4.5932215E-3,3.8161866E-2,-2.1098357E-2,3.3983536E-2,-2.8981568E-2,-3.8856175E-2,2.6114441E-2,-3.7106764E-2,4.194443E-2,-3.1417366E-2,3.1685233E-2,-3.0729895E-2,4.208773E-2,-9.018098E-3,-4.1939076E-2,-3.7019752E-2,4.0125504E-2,4.7434613E-2,-1.8294854E-2,-3.360914E-2,4.0036622E-2,-3.5416428E-2,2.8377743E-2,5.7551235E-2,-3.0866213E-2,-4.311424E-2,3.7093025E-3,6.618812E-2,-2.4636803E-2,5.0324656E-2,-1.7186158E-4],"split_indices":[445,534,238,735,208,451,804,109,121,41,693,412,208,111,1176,888,1080,914,251,256,300,213,268,558,28,1233,192,0,18,77,436,1005,1274,1234,198,481,339,101,554,575,684,383,1186,911,481,0,0,524,742,801,0,324,730,408,0,0,0,818,0,0,6,0,0,0,0,0,0,0,0,0,0,0,0,0,0,0,0,0,0,0,0,0,0,0,0,0,0,0,0,0,0,0,0,0,0,0,0,0,0,0,0,0,0,0,0],"split_type":[0,0,0,0,0,0,0,0,0,0,0,0,0,0,0,0,0,0,0,0,0,0,0,0,0,0,0,0,0,0,0,0,0,0,0,0,0,0,0,0,0,0,0,0,0,0,0,0,0,0,0,0,0,0,0,0,0,0,0,0,0,0,0,0,0,0,0,0,0,0,0,0,0,0,0,0,0,0,0,0,0,0,0,0,0,0,0,0,0,0,0,0,0,0,0,0,0,0,0,0,0,0,0,0,0],"sum_hessian":[1.7234878E3,1.1057732E3,6.1771454E2,8.5435297E2,2.5142029E2,5.7568854E2,4.2025978E1,6.3800574E2,2.1634724E2,1.3882248E2,1.1259781E2,9.620207E1,4.7948648E2,1.2748175E1,2.9277803E1,4.285198E2,2.0948592E2,1.0865982E2,1.07687416E2,7.148268E1,6.73398E1,1.07070915E2,5.5268974E0,4.0695705E1,5.550637E1,9.83176E1,3.8116888E2,9.340971E0,3.4072042E0,2.0797861E1,8.479942E0,4.127414E2,1.577842E1,1.1274935E2,9.6736565E1,8.8307304E1,2.0352524E1,6.8357666E1,3.9329754E1,5.342778E1,1.8054905E1,1.406439E1,5.327541E1,1.2675257E1,9.439565E1,3.702063E0,1.8248343E0,1.490075E1,2.5794956E1,1.6892597E1,3.8613773E1,9.178711E1,6.530486E0,3.7926062E2,1.9082512E0,1.8528938E0,1.5543103E0,1.944285E1,1.3550124E0,4.422918E0,4.057024E0,3.804715E2,3.226988E1,1.2395641E1,3.382779E0,6.4419655E1,4.8329697E1,5.3035667E1,4.3700893E1,7.855986E1,9.7474375E0,1.3908744E1,6.4437795E0,4.3610775E1,2.4746887E1,1.8732374E1,2.0597378E1,4.7908455E1,5.5193253E0,1.3340626E1,4.7142787E0,3.686908E0,1.0377482E1,4.8996426E1,4.2789845E0,6.395243E0,6.2800136E0,1.6144297E1,7.825136E1,1.1954627E1,2.9461224E0,1.9962553E1,5.8324037E0,8.728354E0,8.164243E0,8.728422E1,4.502891E0,4.4930263E0,2.0374599E0,3.7627075E2,2.9898834E0,1.8303932E1,1.1389165E0,2.5046105E0,1.5524136E0],"tree_param":{"num_deleted":"0","num_feature":"1280","num_nodes":"105","size_leaf_vector":"1"}},{"base_weights":[-1.0187712E-3,6.066123E-1,-9.61765E-1,9.043485E-1,-2.4472842E-1,-1.9702978E-1,-1.2198242E0,1.2060982E0,1.8895283E-1,1.1886749E-1,-1.0480036E0,-6.467948E-1,5.772265E-1,-1.9101478E-1,-1.3125834E0,1.3798099E0,7.9014756E-2,9.684688E-1,-1.992329E-1,-4.4775608E-1,5.359534E-1,-1.2187777E0,3.4809953E-1,-8.712486E-1,6.5547734E-1,9.4820386E-1,-8.6760384E-1,-9.132349E-1,1.1010885E0,-1.3518939E0,2.5568795E-1,1.4295752E0,-5.2085614E-1,-7.598665E-1,5.5624694E-1,1.1790202E0,-8.529616E-1,2.072488E-1,-7.9819286E-1,4.2234594E-1,-8.6644244E-1,7.8970057E-1,-9.945528E-1,-1.3415837E0,1.1113862E0,1.2992662E0,-3.5328634E-2,-1.0941459E0,2.7109578E-1,1.7823285E0,-5.199864E-1,1.3141694E0,-3.7186247E-1,-4.18313E-2,1.129808E0,6.2286097E-1,-4.283276E-2,1.9672134E0,-4.9792457E-1,-1.391595E0,-3.8152027E-1,1.3709174E0,-3.6911327E-2,4.5472723E-2,1.4154201E-2,3.3174995E-2,-3.549138E-2,-3.195336E-2,3.9018963E-2,3.320556E-2,-1.5639497E-2,-8.725291E-3,4.393369E-2,-4.180339E-2,3.8168155E-2,1.7659487E-2,-2.3440907E-2,5.5667437E-3,-3.6880013E-2,-2.1232404E-2,4.251121E-2,1.0244205E-2,-3.7214484E-2,2.9766798E-2,-2.8332846E-2,-4.332539E-2,3.442904E-2,-4.21754E-2,3.143129E-2,1.2811746E-3,5.0272234E-2,5.657418E-2,-2.4659712E-2,-3.6888123E-2,1.2611967E-2,-2.581402E-2,4.943116E-2,3.8643756E-3,6.2063333E-2,-3.9220467E-2,3.5418734E-2,4.6041843E-2,-2.0832013E-2,-3.3184897E-2,4.927783E-2,9.75176E-3,4.1347988E-2,-3.3488765E-2,5.43282E-2,6.599785E-2,5.9477896E-3,-3.6226396E-2,3.9056227E-2,-4.223915E-2,7.975566E-5,-3.5670917E-2,3.5450373E-2,6.050731E-2,-2.588627E-2],"categories":[],"categories_nodes":[],"categories_segments":[],"categories_sizes":[],"default_left":[0,0,0,0,0,0,0,0,0,0,0,0,0,0,0,0,0,0,0,0,0,0,0,0,0,0,0,0,0,0,0,0,0,0,0,0,0,0,0,0,0,0,0,0,0,0,0,0,0,0,0,0,0,0,0,0,0,0,0,0,0,0,0,0,0,0,0,0,0,0,0,0,0,0,0,0,0,0,0,0,0,0,0,0,0,0,0,0,0,0,0,0,0,0,0,0,0,0,0,0,0,0,0,0,0,0,0,0,0,0,0,0,0,0,0,0,0,0,0],"id":6,"left_children":[1,3,5,7,9,11,13,15,17,19,21,23,25,27,29,31,33,35,37,39,41,43,45,47,49,51,53,55,57,59,61,63,65,67,69,71,73,75,77,79,81,83,85,87,89,91,-1,93,95,97,99,101,103,-1,105,107,-1,109,111,113,115,117,-1,-1,-1,-1,-1,-1,-1,-1,-1,-1,-1,-1,-1,-1,-1,-1,-1,-1,-1,-1,-1,-1,-1,-1,-1,-1,-1,-1,-1,-1,-1,-1,-1,-1,-1,-1,-1,-1,-1,-1,-1,-1,-1,-1,-1,-1,-1,-1,-1,-1,-1,-1,-1,-1,-1,-1,-1],"loss_changes":[9.985972E2,2.6582565E2,1.3054572E2,1.6740796E2,7.965312E1,5.901672E1,4.701831E1,1.067901E2,7.02629E1,4.4752E1,2.0677605E1,3.1845657E1,3.4273148E1,4.0325806E1,2.8345825E1,4.548639E1,3.0037687E1,3.0593071E1,3.800297E1,2.9656498E1,4.309505E1,2.3213959E1,1.6095036E1,2.364428E1,2.2518192E1,2.4709003E1,1.5540312E1,2.2683296E1,2.2530338E1,1.6544739E1,2.1486807E1,3.7355164E1,1.5098414E1,1.8522106E1,2.8894707E1,2.9616547E1,1.1621911E1,3.5667908E1,2.6964035E1,3.1120224E1,2.509684E1,3.395325E1,1.7006744E1,1.2614761E1,2.5504293E0,9.833643E0,0E0,1.6298096E1,2.598608E1,3.7823906E0,1.3262906E1,1.8552856E1,1.9067142E1,0E0,2.1624947E-1,1.7756256E1,0E0,3.8021011E0,9.573948E0,9.717834E0,2.5135235E1,1.2271669E1,0E0,0E0,0E0,0E0,0E0,0E0,0E0,0E0,0E0,0E0,0E0,0E0,0E0,0E0,0E0,0E0,0E0,0E0,0E0,0E0,0E0,0E0,0E0,0E0,0E0,0E0,0E0,0E0,0E0,0E0,0E0,0E0,0E0,0E0,0E0,0E0,0E0,0E0,0E0,0E0,0E0,0E0,0E0,0E0,0E0,0E0,0E0,0E0,0E0,0E0,0E0,0E0,0E0,0E0,0E0,0E0,0E0],"parents":[2147483647,0,0,1,1,2,2,3,3,4,4,5,5,6,6,7,7,8,8,9,9,10,10,11,11,12,12,13,13,14,14,15,15,16,16,17,17,18,18,19,19,20,20,21,21,22,22,23,23,24,24,25,25,26,26,27,27,28,28,29,29,30,30,31,31,32,32,33,33,34,34,35,35,36,36,37,37,38,38,39,39,40,40,41,41,42,42,43,43,44,44,45,45,47,47,48,48,49,49,50,50,51,51,52,52,54,54,55,55,57,57,58,58,59,59,60,60,61,61],"right_children":[2,4,6,8,10,12,14,16,18,20,22,24,26,28,30,32,34,36,38,40,42,44,46,48,50,52,54,56,58,60,62,64,66,68,70,72,74,76,78,80,82,84,86,88,90,92,-1,94,96,98,100,102,104,-1,106,108,-1,110,112,114,116,118,-1,-1,-1,-1,-1,-1,-1,-1,-1,-1,-1,-1,-1,-1,-1,-1,-1,-1,-1,-1,-1,-1,-1,-1,-1,-1,-1,-1,-1,-1,-1,-1,-1,-1,-1,-1,-1,-1,-1,-1,-1,-1,-1,-1,-1,-1,-1,-1,-1,-1,-1,-1,-1,-1,-1,-1,-1],"split_conditions":[5.8518577E-1,3.3359218E-1,9.477778E-2,4.0086076E-2,5.0009793E-1,1.5234652E-1,1.5323698E-2,8.272741E-1,4.681714E-2,6.526808E-2,9.980415E-1,8.210179E-1,9.725156E-1,2.4282399E-1,8.014719E-1,9.7171426E-1,5.2499518E-2,5.1386714E-1,4.0771666E-1,4.8737712E-2,7.1620375E-1,1.5846335E0,3.4545958E-2,8.4946036E-1,2.752158E-3,2.3267613E-1,1.3391249E0,1.4240324E-1,3.1447303E-2,2.038467E0,1.6997929E-1,9.7820795E-1,1.7303536E-2,2.0202465E0,2.6275927E-1,2.155301E-2,1.0672472E0,5.0556904E-1,2.266369E-2,5.416693E-2,5.6738317E-2,5.9198004E-1,2.1275673E0,1.2999886E0,4.6825227E-1,1.6811328E-1,-3.5328634E-2,7.7554554E-1,5.79986E-1,1.5860966E-3,1.7984686E0,6.091272E-1,1.5887563E0,-4.18313E-2,1.8813203E-1,2.982557E-2,-4.283276E-2,9.096244E-1,4.3175596E-1,1.1033062E0,9.68287E-1,2.5619733E-1,-3.6911327E-2,4.5472723E-2,1.4154201E-2,3.3174995E-2,-3.549138E-2,-3.195336E-2,3.9018963E-2,3.320556E-2,-1.5639497E-2,-8.725291E-3,4.393369E-2,-4.180339E-2,3.8168155E-2,1.7659487E-2,-2.3440907E-2,5.5667437E-3,-3.6880013E-2,-2.1232404E-2,4.251121E-2,1.0244205E-2,-3.7214484E-2,2.9766798E-2,-2.8332846E-2,-4.332539E-2,3.442904E-2,-4.21754E-2,3.143129E-2,1.2811746E-3,5.0272234E-2,5.657418E-2,-2.4659712E-2,-3.6888123E-2,1.2611967E-2,-2.581402E-2,4.943116E-2,3.8643756E-3,6.2063333E-2,-3.9220467E-2,3.5418734E-2,4.6041843E-2,-2.0832013E-2,-3.3184897E-2,4.927783E-2,9.75176E-3,4.1347988E-2,-3.3488765E-2,5.43282E-2,6.599785E-2,5.9477896E-3,-3.6226396E-2,3.9056227E-2,-4.223915E-2,7.975566E-5,-3.5670917E-2,3.5450373E-2,6.050731E-2,-2.588627E-2],"split_indices":[445,534,219,121,219,378,348,1219,20,896,1049,1274,353,338,1192,888,341,98,824,635,171,580,1036,259,446,542,40,534,244,257,1182,266,1208,969,386,1054,771,1094,972,197,56,777,181,569,114,215,0,224,930,868,182,904,645,0,4,398,0,20,36,309,1084,121,0,0,0,0,0,0,0,0,0,0,0,0,0,0,0,0,0,0,0,0,0,0,0,0,0,0,0,0,0,0,0,0,0,0,0,0,0,0,0,0,0,0,0,0,0,0,0,0,0,0,0,0,0,0,0,0,0],"split_type":[0,0,0,0,0,0,0,0,0,0,0,0,0,0,0,0,0,0,0,0,0,0,0,0,0,0,0,0,0,0,0,0,0,0,0,0,0,0,0,0,0,0,0,0,0,0,0,0,0,0,0,0,0,0,0,0,0,0,0,0,0,0,0,0,0,0,0,0,0,0,0,0,0,0,0,0,0,0,0,0,0,0,0,0,0,0,0,0,0,0,0,0,0,0,0,0,0,0,0,0,0,0,0,0,0,0,0,0,0,0,0,0,0,0,0,0,0,0,0],"sum_hessian":[1.7085739E3,1.0468527E3,6.617212E2,7.755576E2,2.7129507E2,1.6740248E2,4.943187E2,5.4499567E2,2.3056195E2,1.8734631E2,8.394875E1,1.059948E2,6.1407692E1,4.1135628E1,4.5318307E2,4.7202124E2,7.297446E1,7.615008E1,1.5441187E2,7.940234E1,1.0794397E2,7.491234E1,9.036414E0,9.069414E1,1.5300658E1,4.9135338E1,1.2272354E1,2.6574852E1,1.4560774E1,4.4223593E2,1.0947149E1,4.6021912E2,1.1802128E1,2.6246311E1,4.6728146E1,6.857565E1,7.5744267E0,9.237556E1,6.2036312E1,2.5792456E1,5.360989E1,9.3007935E1,1.4936035E1,7.1564926E1,3.3474162E0,5.657705E0,3.3787093E0,7.592219E1,1.4771947E1,7.5482745E0,7.7523837E0,3.847365E1,1.0661686E1,9.950136E0,2.3222182E0,6.6151013E0,1.9959751E1,9.295491E0,5.2652826E0,4.2443677E2,1.7799164E1,6.2981434E0,4.649006E0,4.216917E2,3.8527378E1,3.2206187E0,8.581509E0,2.3280571E1,2.965741E0,3.0907887E1,1.5820257E1,1.1148276E1,5.7427376E1,6.3132E0,1.2612267E0,6.6950874E1,2.5424679E1,1.9077057E1,4.2959255E1,1.2209486E1,1.358297E1,1.26961975E1,4.0913692E1,8.36647E1,9.343235E0,1.261425E1,2.3217852E0,7.009134E1,1.4735845E0,1.5285598E0,1.8188565E0,4.519134E0,1.1385709E0,6.986199E1,6.060197E0,8.313361E0,6.4585857E0,1.3286117E0,6.2196627E0,5.457072E0,2.295312E0,3.4879482E1,3.5941675E0,8.14397E0,2.517716E0,1.0923694E0,1.2298486E0,2.7094026E0,3.905699E0,7.9994855E0,1.2960055E0,4.012361E0,1.2529219E0,4.1949957E2,4.9371767E0,1.1894248E1,5.904916E0,4.9606576E0,1.3374858E0],"tree_param":{"num_deleted":"0","num_feature":"1280","num_nodes":"119","size_leaf_vector":"1"}},{"base_weights":[-8.939116E-3,7.1627903E-1,-7.870804E-1,1.039263E0,-1.9296879E-1,-1.5544619E-1,-1.1812811E0,1.2703317E0,2.351201E-1,4.3318832E-1,-6.943002E-1,-8.229144E-1,2.7885422E-1,-5.2323884E-1,-1.2948107E0,1.3971536E0,1.4848422E-1,7.6176035E-1,-5.1962185E-1,6.4500827E-1,-1.0897858E0,-1.1293752E0,1.1348699E-1,-1.0902072E0,2.1999384E-1,9.381449E-1,-2.2755831E-1,-9.473839E-1,6.754583E-1,-1.324549E0,4.243523E-2,1.4391612E0,-7.243705E-1,7.5062E-1,-9.11028E-1,1.0522246E0,-5.0195587E-1,5.3509843E-1,-1.058984E0,9.495884E-1,-3.987171E-1,-4.3484073E-2,3.861217E-2,-1.2580017E0,8.012225E-1,-4.5538795E-1,1.141937E0,-1.17279E0,5.5739826E-1,1.4043128E0,-8.141663E-1,1.1933287E0,-5.346248E-1,2.1008082E-1,-9.3166506E-1,-1.1356E0,1.4753379E0,-4.2400098E-1,1.6568578E0,-1.3451308E0,2.3605749E-1,1.375182E0,-3.711706E-2,4.58679E-2,1.3281261E-2,-4.2941403E-2,3.4775194E-2,-2.5194252E-2,3.6100544E-2,-4.548608E-2,1.0868461E-2,3.756614E-2,-1.7244583E-2,-3.7722148E-2,2.4262473E-2,-3.7991807E-2,2.9576993E-2,-4.5557525E-2,8.179674E-3,3.221863E-2,-3.7605144E-2,-3.5523847E-2,3.7803072E-2,-4.024147E-2,2.2796221E-2,-2.7821252E-2,4.9150806E-2,3.828539E-2,-2.4538482E-2,4.8328817E-2,-3.3178985E-2,-3.795238E-2,1.4264151E-2,-3.079889E-2,5.365269E-2,-3.3698638E-3,5.8776453E-2,1.320543E-2,-4.272482E-2,4.006005E-2,-3.7457246E-2,3.1286698E-2,-4.2366028E-2,1.5184075E-2,-3.7737433E-2,-3.3976797E-2,3.974464E-2,-3.77601E-2,2.1679588E-2,5.1791616E-2,1.0346851E-2,-3.879063E-2,3.3719074E-2,5.9695534E-2,-2.4486242E-3,-4.0681925E-2,2.5695685E-2,4.978851E-2,-3.3379424E-2,1.2766557E-3,5.567851E-2],"categories":[],"categories_nodes":[],"categories_segments":[],"categories_sizes":[],"default_left":[0,0,0,0,0,0,0,0,0,0,0,0,0,0,0,0,0,0,0,0,0,0,0,0,0,0,0,0,0,0,0,0,0,0,0,0,0,0,0,0,0,0,0,0,0,0,0,0,0,0,0,0,0,0,0,0,0,0,0,0,0,0,0,0,0,0,0,0,0,0,0,0,0,0,0,0,0,0,0,0,0,0,0,0,0,0,0,0,0,0,0,0,0,0,0,0,0,0,0,0,0,0,0,0,0,0,0,0,0,0,0,0,0,0,0,0,0,0,0,0,0],"id":7,"left_children":[1,3,5,7,9,11,13,15,17,19,21,23,25,27,29,31,33,35,37,39,41,43,45,47,49,51,53,55,57,59,61,63,65,67,69,71,73,75,77,79,81,-1,-1,83,85,87,89,91,93,95,97,99,101,103,105,107,109,111,113,115,117,119,-1,-1,-1,-1,-1,-1,-1,-1,-1,-1,-1,-1,-1,-1,-1,-1,-1,-1,-1,-1,-1,-1,-1,-1,-1,-1,-1,-1,-1,-1,-1,-1,-1,-1,-1,-1,-1,-1,-1,-1,-1,-1,-1,-1,-1,-1,-1,-1,-1,-1,-1,-1,-1,-1,-1,-1,-1,-1,-1],"loss_changes":[9.694143E2,2.613231E2,2.0614923E2,1.2164203E2,7.372621E1,9.2872696E1,3.7429688E1,7.228839E1,5.910717E1,3.445298E1,4.5916332E1,3.5428093E1,6.51048E1,3.965245E1,1.7329346E1,4.1830627E1,3.4414276E1,3.2612362E1,3.54401E1,2.977594E1,1.310431E1,2.2058167E1,2.773458E1,1.434803E1,3.3703083E1,3.244423E1,3.4316334E1,2.771003E1,2.297172E1,1.3966553E1,1.9469414E1,3.949762E1,1.4378824E1,2.5679466E1,1.5660976E1,2.3949951E1,1.7862518E1,1.863278E1,2.5443417E1,2.1040596E1,2.9626022E1,0E0,0E0,1.4456284E1,1.006558E1,2.0295027E1,1.9548395E1,1.5229752E1,1.2525315E1,1.095826E1,1.1970022E1,2.6787422E1,1.9731129E1,3.066888E1,2.0824085E1,1.3154701E1,6.960554E-1,1.561852E1,6.5931625E0,1.1260986E1,1.4099714E1,3.494029E0,0E0,0E0,0E0,0E0,0E0,0E0,0E0,0E0,0E0,0E0,0E0,0E0,0E0,0E0,0E0,0E0,0E0,0E0,0E0,0E0,0E0,0E0,0E0,0E0,0E0,0E0,0E0,0E0,0E0,0E0,0E0,0E0,0E0,0E0,0E0,0E0,0E0,0E0,0E0,0E0,0E0,0E0,0E0,0E0,0E0,0E0,0E0,0E0,0E0,0E0,0E0,0E0,0E0,0E0,0E0,0E0,0E0,0E0,0E0],"parents":[2147483647,0,0,1,1,2,2,3,3,4,4,5,5,6,6,7,7,8,8,9,9,10,10,11,11,12,12,13,13,14,14,15,15,16,16,17,17,18,18,19,19,20,20,21,21,22,22,23,23,24,24,25,25,26,26,27,27,28,28,29,29,30,30,31,31,32,32,33,33,34,34,35,35,36,36,37,37,38,38,39,39,40,40,43,43,44,44,45,45,46,46,47,47,48,48,49,49,50,50,51,51,52,52,53,53,54,54,55,55,56,56,57,57,58,58,59,59,60,60,61,61],"right_children":[2,4,6,8,10,12,14,16,18,20,22,24,26,28,30,32,34,36,38,40,42,44,46,48,50,52,54,56,58,60,62,64,66,68,70,72,74,76,78,80,82,-1,-1,84,86,88,90,92,94,96,98,100,102,104,106,108,110,112,114,116,118,120,-1,-1,-1,-1,-1,-1,-1,-1,-1,-1,-1,-1,-1,-1,-1,-1,-1,-1,-1,-1,-1,-1,-1,-1,-1,-1,-1,-1,-1,-1,-1,-1,-1,-1,-1,-1,-1,-1,-1,-1,-1,-1,-1,-1,-1,-1,-1,-1,-1,-1,-1,-1,-1,-1,-1,-1,-1,-1,-1],"split_conditions":[2.58025E-1,3.980398E-1,5.7582754E-1,2.1609677E-1,6.5843105E-2,1.7756024E-2,9.238866E-4,4.0418866E-1,2.171013E-1,1.2433823E0,3.6563566E-1,3.39267E-1,2.2321818E-2,1.8697934E-1,1.5542713E0,1.4803395E0,2.2285205E-1,2.4094932E-1,4.866824E-3,1.0103068E0,1.1496664E0,2.251765E0,5.5254906E-2,4.269853E-1,8.1914365E-2,2.4648775E-1,3.978948E-1,1.5139297E0,1.2110003E0,1.2437315E0,2.613436E-1,2.772663E-1,8.626954E-1,9.9796906E-2,8.723996E-1,2.724042E-1,1.2687421E-1,4.2291913E-2,1.2501754E0,1.6405498E0,5.2826643E-1,-4.3484073E-2,3.861217E-2,1.1110595E0,1.8072003E-1,1.0961707E-3,4.3024278E-1,2.0359895E0,5.570926E-1,1.20715104E-1,2.1901928E-2,9.716907E-1,1.8616082E-2,1.9226283E-1,1.7131618E0,6.983637E-1,5.8255976E-1,3.8121492E-1,2.242427E-1,2.1766913E0,1.1175536E-2,4.4678074E-1,-3.711706E-2,4.58679E-2,1.3281261E-2,-4.2941403E-2,3.4775194E-2,-2.5194252E-2,3.6100544E-2,-4.548608E-2,1.0868461E-2,3.756614E-2,-1.7244583E-2,-3.7722148E-2,2.4262473E-2,-3.7991807E-2,2.9576993E-2,-4.5557525E-2,8.179674E-3,3.221863E-2,-3.7605144E-2,-3.5523847E-2,3.7803072E-2,-4.024147E-2,2.2796221E-2,-2.7821252E-2,4.9150806E-2,3.828539E-2,-2.4538482E-2,4.8328817E-2,-3.3178985E-2,-3.795238E-2,1.4264151E-2,-3.079889E-2,5.365269E-2,-3.3698638E-3,5.8776453E-2,1.320543E-2,-4.272482E-2,4.006005E-2,-3.7457246E-2,3.1286698E-2,-4.2366028E-2,1.5184075E-2,-3.7737433E-2,-3.3976797E-2,3.974464E-2,-3.77601E-2,2.1679588E-2,5.1791616E-2,1.0346851E-2,-3.879063E-2,3.3719074E-2,5.9695534E-2,-2.4486242E-3,-4.0681925E-2,2.5695685E-2,4.978851E-2,-3.3379424E-2,1.2766557E-3,5.567851E-2],"split_indices":[534,735,445,446,445,1192,446,225,979,500,259,238,171,122,363,171,729,888,1170,927,124,948,54,1141,726,121,729,558,753,440,638,1181,454,224,248,1005,700,124,1104,617,573,0,0,25,0,116,762,939,472,525,518,123,1013,1246,780,522,1,17,1225,558,746,161,0,0,0,0,0,0,0,0,0,0,0,0,0,0,0,0,0,0,0,0,0,0,0,0,0,0,0,0,0,0,0,0,0,0,0,0,0,0,0,0,0,0,0,0,0,0,0,0,0,0,0,0,0,0,0,0,0,0,0],"split_type":[0,0,0,0,0,0,0,0,0,0,0,0,0,0,0,0,0,0,0,0,0,0,0,0,0,0,0,0,0,0,0,0,0,0,0,0,0,0,0,0,0,0,0,0,0,0,0,0,0,0,0,0,0,0,0,0,0,0,0,0,0,0,0,0,0,0,0,0,0,0,0,0,0,0,0,0,0,0,0,0,0,0,0,0,0,0,0,0,0,0,0,0,0,0,0,0,0,0,0,0,0,0,0,0,0,0,0,0,0,0,0,0,0,0,0,0,0,0,0,0,0],"sum_hessian":[1.7158392E3,8.8816235E2,8.2767694E2,6.5525793E2,2.3290442E2,3.1858972E2,5.090872E2,5.0854807E2,1.4670985E2,1.0362008E2,1.2928435E2,1.252305E2,1.9335922E2,7.573266E1,4.3335452E2,4.5667657E2,5.1871494E1,8.640753E1,6.030233E1,9.147406E1,1.2146016E1,8.376846E1,4.5515884E1,9.964625E1,2.5584251E1,8.3630035E1,1.09729195E2,5.609408E1,1.963858E1,4.2393634E2,9.418195E0,4.4812506E2,8.551524E0,3.326058E1,1.8610916E1,7.0394714E1,1.6012815E1,2.0406132E1,3.98962E1,7.088003E1,2.059403E1,1.0888469E1,1.2575468E0,7.886261E1,4.905852E0,2.9664518E1,1.5851367E1,9.516451E1,4.481738E0,1.1759434E1,1.3824817E1,7.144129E1,1.2188745E1,6.810192E1,4.162727E1,5.254337E1,3.5507126E0,9.530052E0,1.0108529E1,4.1855435E2,5.381974E0,4.5768623E0,4.841332E0,4.1060028E2,3.7524773E1,6.392199E0,2.159325E0,7.180561E0,2.6080019E1,1.24859E1,6.1250157E0,6.2894703E1,7.5000114E0,1.0183839E1,5.8289776E0,3.7222152E0,1.6683916E1,2.955518E1,1.034102E1,6.757775E1,3.3022804E0,1.4170705E1,6.4233255E0,7.605518E1,2.8074214E0,1.5654912E0,3.3403604E0,4.6996117E0,2.4964907E1,1.3349378E1,2.5019896E0,9.033875E1,4.8257556E0,2.0324755E0,2.4492624E0,3.3636315E0,8.3958025E0,4.61443E0,9.210386E0,6.794328E1,3.4980123E0,4.289551E0,7.8991942E0,5.7217846E1,1.0884076E1,3.868154E1,2.9457278E0,4.958225E1,2.9611201E0,2.474088E0,1.0766248E0,6.2090387E0,3.3210135E0,8.362212E0,1.746317E0,4.1686826E2,1.6861072E0,2.5061762E0,2.875798E0,1.5020077E0,3.0748546E0],"tree_param":{"num_deleted":"0","num_feature":"1280","num_nodes":"121","size_leaf_vector":"1"}},{"base_weights":[-1.4894129E-2,6.2669355E-1,-8.515693E-1,8.90262E-1,-4.8175278E-1,-1.4141063E-1,-1.1827986E0,1.1697268E0,2.679295E-1,1.8399175E-1,-8.122296E-1,2.418752E-1,-8.3656925E-1,-3.3072954E-1,-1.2560006E0,1.3449115E0,4.3630993E-1,-3.3586797E-1,7.2912556E-1,7.016517E-1,-8.040144E-1,-1.0681669E0,5.9832574E-4,-7.4020886E-1,5.702033E-1,1.36302905E-2,-1.134633E0,9.661106E-1,-8.5293376E-1,-1.2791704E0,5.531976E-1,1.4516473E0,4.8553744E-1,1.1204125E0,-1.7210534E-1,-7.0585185E-1,7.152166E-1,9.200996E-1,-5.595115E-1,1.1073263E0,-1.045017E0,-1.3030239E0,7.438618E-1,-1.1793847E0,8.7189263E-1,-7.8848E-1,1.0246091E0,-1.1056833E0,8.5763174E-1,-2.0615222E-2,1.0996567E0,9.410057E-1,-9.840499E-1,-1.2744212E0,5.519545E-1,-3.2174733E-2,1.5823677E0,3.0927357E-1,-4.4235036E-2,-1.3029999E0,5.1056427E-1,4.7828395E-2,-3.0914776E-2,4.7905426E-2,2.464495E-2,-5.5993255E-3,4.506035E-2,-7.017535E-3,4.481318E-2,-2.4247045E-2,1.8159557E-2,-2.7442306E-2,2.916141E-2,3.9658118E-2,-1.9239066E-2,3.0885786E-2,-2.438825E-2,2.6125079E-2,-4.3321196E-2,4.310889E-2,-9.761408E-3,-3.951122E-2,1.3044519E-2,-4.3431304E-2,1.4076201E-2,5.0166383E-2,-3.1120712E-2,-3.7599303E-2,2.9174907E-2,5.4376002E-2,-2.8759113E-2,-4.272149E-2,1.5306149E-2,4.7485296E-2,-3.2817446E-2,-3.942788E-2,2.3798557E-2,-3.0662796E-2,5.336885E-2,1.5153018E-2,-3.2017164E-2,-1.6081873E-2,4.050737E-2,4.6853956E-2,-3.2798126E-2,-4.147073E-2,3.7549496E-2,-4.1791897E-2,2.7980354E-2,-2.9689247E-2,5.130631E-2,5.908506E-2,-3.4529557E-3,-2.6574623E-2,4.380557E-2,-1.885105E-2,-4.0471055E-2,5.303695E-2,-3.2023035E-2],"categories":[],"categories_nodes":[],"categories_segments":[],"categories_sizes":[],"default_left":[0,0,0,0,0,0,0,0,0,0,0,0,0,0,0,0,0,0,0,0,0,0,0,0,0,0,0,0,0,0,0,0,0,0,0,0,0,0,0,0,0,0,0,0,0,0,0,0,0,0,0,0,0,0,0,0,0,0,0,0,0,0,0,0,0,0,0,0,0,0,0,0,0,0,0,0,0,0,0,0,0,0,0,0,0,0,0,0,0,0,0,0,0,0,0,0,0,0,0,0,0,0,0,0,0,0,0,0,0,0,0,0,0,0,0,0,0,0,0],"id":8,"left_children":[1,3,5,7,9,11,13,15,17,19,21,23,25,27,29,31,33,35,37,39,41,43,45,47,49,51,53,55,57,59,61,63,65,67,69,71,73,75,77,79,81,83,85,87,89,91,93,95,97,99,101,103,105,107,109,-1,111,113,-1,115,117,-1,-1,-1,-1,-1,-1,-1,-1,-1,-1,-1,-1,-1,-1,-1,-1,-1,-1,-1,-1,-1,-1,-1,-1,-1,-1,-1,-1,-1,-1,-1,-1,-1,-1,-1,-1,-1,-1,-1,-1,-1,-1,-1,-1,-1,-1,-1,-1,-1,-1,-1,-1,-1,-1,-1,-1,-1,-1],"loss_changes":[9.1385046E2,2.819309E2,1.7363135E2,1.3513531E2,4.101678E1,6.3120934E1,3.1003174E1,6.842853E1,6.781398E1,3.2496117E1,2.5862366E1,4.9753403E1,2.134034E1,2.8731194E1,2.0137268E1,3.9022217E1,4.391539E1,4.163408E1,3.4447227E1,3.0565147E1,1.7909145E1,2.1428474E1,2.567023E1,2.3587355E1,3.6065845E1,2.2050453E1,1.5396004E1,1.7148245E1,2.2062551E1,2.0196228E1,1.2457079E1,3.3892456E1,3.400049E1,2.5420235E1,2.8414116E1,2.8483837E1,2.3919325E1,2.36819E1,2.4560219E1,1.6603138E1,3.9287033E0,5.0250645E0,1.1628515E1,1.5511253E1,1.1554182E1,1.5536995E1,1.8082626E1,1.3712467E1,1.5291718E1,3.1042282E1,2.5639565E1,1.7296219E1,1.1960041E1,1.6447876E1,1.14551935E1,0E0,6.69829E0,1.6765697E1,0E0,1.3196655E1,1.52513685E1,0E0,0E0,0E0,0E0,0E0,0E0,0E0,0E0,0E0,0E0,0E0,0E0,0E0,0E0,0E0,0E0,0E0,0E0,0E0,0E0,0E0,0E0,0E0,0E0,0E0,0E0,0E0,0E0,0E0,0E0,0E0,0E0,0E0,0E0,0E0,0E0,0E0,0E0,0E0,0E0,0E0,0E0,0E0,0E0,0E0,0E0,0E0,0E0,0E0,0E0,0E0,0E0,0E0,0E0,0E0,0E0,0E0,0E0],"parents":[2147483647,0,0,1,1,2,2,3,3,4,4,5,5,6,6,7,7,8,8,9,9,10,10,11,11,12,12,13,13,14,14,15,15,16,16,17,17,18,18,19,19,20,20,21,21,22,22,23,23,24,24,25,25,26,26,27,27,28,28,29,29,30,30,31,31,32,32,33,33,34,34,35,35,36,36,37,37,38,38,39,39,40,40,41,41,42,42,43,43,44,44,45,45,46,46,47,47,48,48,49,49,50,50,51,51,52,52,53,53,54,54,56,56,57,57,59,59,60,60],"right_children":[2,4,6,8,10,12,14,16,18,20,22,24,26,28,30,32,34,36,38,40,42,44,46,48,50,52,54,56,58,60,62,64,66,68,70,72,74,76,78,80,82,84,86,88,90,92,94,96,98,100,102,104,106,108,110,-1,112,114,-1,116,118,-1,-1,-1,-1,-1,-1,-1,-1,-1,-1,-1,-1,-1,-1,-1,-1,-1,-1,-1,-1,-1,-1,-1,-1,-1,-1,-1,-1,-1,-1,-1,-1,-1,-1,-1,-1,-1,-1,-1,-1,-1,-1,-1,-1,-1,-1,-1,-1,-1,-1,-1,-1,-1,-1,-1,-1,-1,-1],"split_conditions":[3.3359218E-1,5.9060687E-1,1.558652E-1,3.8396135E-2,6.9321625E-2,2.9054144E-1,6.5843105E-2,1.06185794E-1,1.7850319E-1,3.2860625E-1,6.085511E-1,1.056919E-1,5.470003E-4,4.2298375E-4,1.0338131E0,4.3087497E-1,2.0111796E-1,4.116099E-1,6.724652E-1,1.0942449E-1,3.272194E-1,9.617729E-1,4.4425064E-1,1.0479382E0,4.3106943E-2,2.0102033E-2,6.992188E-1,2.5718456E-2,1.06063806E-1,1.7176342E0,1.1255575E-2,1.3083081E-1,3.4782082E-1,2.3440108E-2,3.420835E-1,7.7323246E-1,1.8136367E-1,1.3516028E0,1.6847339E-2,5.624186E-1,9.2375433E-1,1.1147331E0,2.2623422E-2,1.5299217E0,7.801932E-3,8.33975E-1,3.3938137E-1,1.4330963E0,1.9266696E-1,1.0956202E-1,1.0510756E-3,1.0695158E-1,1.3869709E0,1.7161413E0,1.1558235E-1,-3.2174733E-2,7.197491E-2,4.362475E-2,-4.4235036E-2,1.4687547E-2,1.4330835E-2,4.7828395E-2,-3.0914776E-2,4.7905426E-2,2.464495E-2,-5.5993255E-3,4.506035E-2,-7.017535E-3,4.481318E-2,-2.4247045E-2,1.8159557E-2,-2.7442306E-2,2.916141E-2,3.9658118E-2,-1.9239066E-2,3.0885786E-2,-2.438825E-2,2.6125079E-2,-4.3321196E-2,4.310889E-2,-9.761408E-3,-3.951122E-2,1.3044519E-2,-4.3431304E-2,1.4076201E-2,5.0166383E-2,-3.1120712E-2,-3.7599303E-2,2.9174907E-2,5.4376002E-2,-2.8759113E-2,-4.272149E-2,1.5306149E-2,4.7485296E-2,-3.2817446E-2,-3.942788E-2,2.3798557E-2,-3.0662796E-2,5.336885E-2,1.5153018E-2,-3.2017164E-2,-1.6081873E-2,4.050737E-2,4.6853956E-2,-3.2798126E-2,-4.147073E-2,3.7549496E-2,-4.1791897E-2,2.7980354E-2,-2.9689247E-2,5.130631E-2,5.908506E-2,-3.4529557E-3,-2.6574623E-2,4.380557E-2,-1.885105E-2,-4.0471055E-2,5.303695E-2,-3.2023035E-2],"split_indices":[534,735,219,121,665,888,445,977,238,414,391,801,745,338,1192,214,267,383,1172,977,495,1039,0,1052,341,849,1076,868,247,558,768,978,82,301,15,989,1114,797,1048,455,1150,186,328,1033,435,243,1035,1186,837,542,630,1158,1,803,70,0,1133,557,0,1258,416,0,0,0,0,0,0,0,0,0,0,0,0,0,0,0,0,0,0,0,0,0,0,0,0,0,0,0,0,0,0,0,0,0,0,0,0,0,0,0,0,0,0,0,0,0,0,0,0,0,0,0,0,0,0,0,0,0,0],"split_type":[0,0,0,0,0,0,0,0,0,0,0,0,0,0,0,0,0,0,0,0,0,0,0,0,0,0,0,0,0,0,0,0,0,0,0,0,0,0,0,0,0,0,0,0,0,0,0,0,0,0,0,0,0,0,0,0,0,0,0,0,0,0,0,0,0,0,0,0,0,0,0,0,0,0,0,0,0,0,0,0,0,0,0,0,0,0,0,0,0,0,0,0,0,0,0,0,0,0,0,0,0,0,0,0,0,0,0,0,0,0,0,0,0,0,0,0,0,0,0],"sum_hessian":[1.7004082E3,9.625482E2,7.3786E2,7.7779865E2,1.8474959E2,2.3514151E2,5.0271848E2,5.3615375E2,2.4164491E2,6.143407E1,1.2331551E2,1.5199107E2,8.315044E1,4.0208694E1,4.625098E2,4.321066E2,1.0404715E2,1.04762146E2,1.3688275E2,4.0502735E1,2.0931335E1,9.354623E1,2.9769287E1,3.776755E1,1.1422352E2,2.183172E1,6.1318714E1,1.1298924E1,2.8909771E1,4.5695078E2,5.559014E0,3.837544E2,4.8352184E1,4.858105E1,5.54661E1,7.772962E1,2.7032532E1,1.1946432E2,1.7418438E1,3.3165806E1,7.336928E0,1.5948114E1,4.9832215E0,8.8845085E1,4.7011356E0,1.694324E1,1.2826048E1,3.0987734E1,6.779818E0,5.4437557E1,5.978596E1,1.1343958E1,1.0487762E1,5.685114E1,4.467574E0,2.4509058E0,8.84802E0,1.0248865E1,1.8660906E1,4.51215E2,5.7357707E0,3.350068E0,2.208946E0,3.106416E2,7.31128E1,2.9596664E1,1.875552E1,1.057925E1,3.80018E1,3.0483364E1,2.4982735E1,6.9528435E1,8.201182E0,1.8695995E1,8.336535E0,1.1275101E2,6.713311E0,6.661608E0,1.0756829E1,2.6959908E1,6.2059E0,6.2905965E0,1.0463318E0,1.4913667E1,1.0344478E0,3.3161035E0,1.6671181E0,8.6298E1,2.5470917E0,3.111885E0,1.5892503E0,1.1311109E1,5.63213E0,1.0351317E1,2.4747312E0,2.8198381E1,2.7893534E0,2.1940615E0,4.585757E0,3.6580624E1,1.7856934E1,7.7910023E0,5.1994957E1,8.869533E0,2.474425E0,9.225801E0,1.2619612E0,5.430103E1,2.5501106E0,1.9790746E0,2.4884994E0,7.074342E0,1.7736775E0,5.140921E0,5.1079435E0,2.9758814E1,4.214562E2,3.1252556E0,2.6105154E0],"tree_param":{"num_deleted":"0","num_feature":"1280","num_nodes":"119","size_leaf_vector":"1"}},{"base_weights":[8.749889E-3,5.464712E-1,-9.729388E-1,8.7050426E-1,-1.9805893E-1,-2.071604E-1,-1.1944556E0,1.0321273E0,-3.6859897E-1,-7.6348156E-1,3.313714E-1,8.766022E-1,-6.1526936E-1,-6.006158E-1,-1.3224173E0,7.2152513E-1,1.4598376E0,1.7948158E-1,-1.0809933E0,-9.3653923E-1,1.6255137E-1,5.907509E-1,-8.735773E-1,1.2326928E0,-9.465374E-1,4.3886396E-1,-9.186113E-1,-1.0262907E0,4.2231122E-1,-1.3746207E0,-5.264477E-1,1.0147396E0,1.2915932E-1,1.5398035E0,1.672842E-1,7.011092E-1,-7.2040004E-1,-1.3621802E0,3.750585E-1,1.5405886E-1,-1.0657451E0,-4.2516372E-1,1.3747616E0,9.433454E-1,-4.0390375E-1,-1.2759839E0,4.5907742E-1,1.4695746E0,-3.358598E-2,-3.7608076E-2,1.0865612E-2,1.0834187E0,-9.7688067E-1,-1.1690409E0,2.0527144E-1,-1.1686428E0,1.1733447E0,1.4312578E0,-6.466341E-1,-1.3875651E0,6.442586E-2,-1.1240027E0,1.1380063E0,1.8190023E-2,4.11512E-2,1.4033464E-2,-2.4295015E-2,4.738534E-2,-2.6151622E-2,3.2821275E-2,-2.8624661E-2,-2.9491743E-2,3.1827115E-2,-3.8158547E-2,1.7773636E-2,-4.5007464E-2,1.5515734E-2,4.365163E-2,-3.38264E-2,3.579017E-2,-3.0742878E-2,-9.5285615E-3,-3.80955E-2,-4.1059285E-2,1.2203375E-2,6.0612023E-2,-1.0784931E-2,3.6349896E-2,-6.0288776E-3,-3.8112067E-2,1.5215047E-2,-4.4268634E-2,8.960834E-3,-3.371608E-2,4.1839764E-2,-1.4688534E-2,5.0918296E-2,-3.0543838E-2,4.4412885E-2,1.25208525E-2,-3.7765052E-2,-4.0437773E-2,3.5191027E-3,-2.862771E-2,3.5749085E-2,-3.841205E-2,2.1784045E-2,3.989229E-3,4.822035E-2,5.2737743E-2,-2.6179316E-2,3.2280248E-2,-4.0313102E-2,-4.2036656E-2,-1.15916235E-4,4.266699E-2,-2.923572E-2,-4.1039094E-2,3.930297E-2,-2.657348E-2,5.5090215E-2],"categories":[],"categories_nodes":[],"categories_segments":[],"categories_sizes":[],"default_left":[0,0,0,0,0,0,0,0,0,0,0,0,0,0,0,0,0,0,0,0,0,0,0,0,0,0,0,0,0,0,0,0,0,0,0,0,0,0,0,0,0,0,0,0,0,0,0,0,0,0,0,0,0,0,0,0,0,0,0,0,0,0,0,0,0,0,0,0,0,0,0,0,0,0,0,0,0,0,0,0,0,0,0,0,0,0,0,0,0,0,0,0,0,0,0,0,0,0,0,0,0,0,0,0,0,0,0,0,0,0,0,0,0,0,0,0,0,0,0,0,0],"id":9,"left_children":[1,3,5,7,9,11,13,15,17,19,21,23,25,27,29,31,33,35,37,39,41,43,45,47,49,51,53,55,57,59,61,63,65,67,69,71,73,75,77,79,81,83,85,87,89,91,93,95,-1,-1,-1,97,99,101,103,105,107,109,111,113,115,117,119,-1,-1,-1,-1,-1,-1,-1,-1,-1,-1,-1,-1,-1,-1,-1,-1,-1,-1,-1,-1,-1,-1,-1,-1,-1,-1,-1,-1,-1,-1,-1,-1,-1,-1,-1,-1,-1,-1,-1,-1,-1,-1,-1,-1,-1,-1,-1,-1,-1,-1,-1,-1,-1,-1,-1,-1,-1,-1],"loss_changes":[9.008321E2,2.6617087E2,1.0220148E2,1.5426855E2,1.0058409E2,6.1007618E1,3.478589E1,8.928467E1,3.5100292E1,2.6173843E1,5.483124E1,2.571418E1,3.2348663E1,3.7375786E1,1.5248596E1,6.863533E1,2.9210327E1,2.462525E1,1.6484718E1,1.9462784E1,1.9406143E1,5.074304E1,1.731022E1,1.9513195E1,3.1642647E0,2.2047577E1,2.2165909E1,2.0221634E1,2.8577362E1,6.7973022E0,2.6421825E1,3.7755463E1,4.2424026E1,2.7074646E1,1.9473171E1,2.106108E1,1.4764344E1,9.31712E0,1.3161102E1,2.0059534E1,1.83134E1,1.5121927E1,1.0649748E1,3.2887123E1,3.0866112E1,8.054115E0,1.3368457E1,1.4020733E1,0E0,0E0,0E0,1.5089901E1,3.560883E0,1.4851952E1,1.8345703E1,1.3009094E1,1.6637759E0,1.1694897E1,1.7223701E1,6.739746E0,7.2629275E0,1.3137054E1,1.1766745E1,0E0,0E0,0E0,0E0,0E0,0E0,0E0,0E0,0E0,0E0,0E0,0E0,0E0,0E0,0E0,0E0,0E0,0E0,0E0,0E0,0E0,0E0,0E0,0E0,0E0,0E0,0E0,0E0,0E0,0E0,0E0,0E0,0E0,0E0,0E0,0E0,0E0,0E0,0E0,0E0,0E0,0E0,0E0,0E0,0E0,0E0,0E0,0E0,0E0,0E0,0E0,0E0,0E0,0E0,0E0,0E0,0E0,0E0],"parents":[2147483647,0,0,1,1,2,2,3,3,4,4,5,5,6,6,7,7,8,8,9,9,10,10,11,11,12,12,13,13,14,14,15,15,16,16,17,17,18,18,19,19,20,20,21,21,22,22,23,23,24,24,25,25,26,26,27,27,28,28,29,29,30,30,31,31,32,32,33,33,34,34,35,35,36,36,37,37,38,38,39,39,40,40,41,41,42,42,43,43,44,44,45,45,46,46,47,47,51,51,52,52,53,53,54,54,55,55,56,56,57,57,58,58,59,59,60,60,61,61,62,62],"right_children":[2,4,6,8,10,12,14,16,18,20,22,24,26,28,30,32,34,36,38,40,42,44,46,48,50,52,54,56,58,60,62,64,66,68,70,72,74,76,78,80,82,84,86,88,90,92,94,96,-1,-1,-1,98,100,102,104,106,108,110,112,114,116,118,120,-1,-1,-1,-1,-1,-1,-1,-1,-1,-1,-1,-1,-1,-1,-1,-1,-1,-1,-1,-1,-1,-1,-1,-1,-1,-1,-1,-1,-1,-1,-1,-1,-1,-1,-1,-1,-1,-1,-1,-1,-1,-1,-1,-1,-1,-1,-1,-1,-1,-1,-1,-1,-1,-1,-1,-1,-1,-1],"split_conditions":[6.602519E-1,4.0885624E-1,9.867513E-4,5.2059424E-1,8.4138215E-2,3.4445442E-2,8.2963824E-2,4.7102204E-1,2.8507566E-1,6.2011826E-1,1.3251883E0,8.254489E-1,3.5304934E-2,9.5649993E-1,4.2473593E-1,9.7996674E-2,1.2497787E0,1.1813087E-1,5.899524E-1,1.9546626E-2,8.13974E-1,9.5230676E-2,7.846524E-1,1.1775346E0,2.0895784E0,4.9127975E-1,4.0909243E-1,1.1067387E0,2.2547811E-1,1.5535684E0,1.0192219E0,3.4451976E-1,2.5006777E-1,9.2369646E-1,4.7297284E-2,3.7997108E-4,6.952535E-1,1.1835512E0,6.2324718E-2,1.5748544E-1,7.22207E-2,9.373941E-2,3.2534737E-2,2.7826604E-1,2.3294842E-1,1.3370554E0,3.5766375E-1,1.2741653E-2,-3.358598E-2,-3.7608076E-2,1.0865612E-2,5.1633425E-2,1.406653E-2,1.4232651E0,8.9415586E-1,1.4974743E0,9.1294795E-2,1.4544693E0,1.2016034E-2,2.1900995E0,8.363753E-2,9.394489E-1,3.317305E-1,1.8190023E-2,4.11512E-2,1.4033464E-2,-2.4295015E-2,4.738534E-2,-2.6151622E-2,3.2821275E-2,-2.8624661E-2,-2.9491743E-2,3.1827115E-2,-3.8158547E-2,1.7773636E-2,-4.5007464E-2,1.5515734E-2,4.365163E-2,-3.38264E-2,3.579017E-2,-3.0742878E-2,-9.5285615E-3,-3.80955E-2,-4.1059285E-2,1.2203375E-2,6.0612023E-2,-1.0784931E-2,3.6349896E-2,-6.0288776E-3,-3.8112067E-2,1.5215047E-2,-4.4268634E-2,8.960834E-3,-3.371608E-2,4.1839764E-2,-1.4688534E-2,5.0918296E-2,-3.0543838E-2,4.4412885E-2,1.25208525E-2,-3.7765052E-2,-4.0437773E-2,3.5191027E-3,-2.862771E-2,3.5749085E-2,-3.841205E-2,2.1784045E-2,3.989229E-3,4.822035E-2,5.2737743E-2,-2.6179316E-2,3.2280248E-2,-4.0313102E-2,-4.2036656E-2,-1.15916235E-4,4.266699E-2,-2.923572E-2,-4.1039094E-2,3.930297E-2,-2.657348E-2,5.5090215E-2],"split_indices":[445,735,412,225,1192,348,219,472,1080,238,735,840,126,860,309,446,1219,446,352,756,879,902,19,427,758,965,710,658,1220,70,743,127,1103,1051,228,894,216,956,52,513,723,441,359,611,136,576,1020,897,0,0,0,595,575,532,1084,357,12,409,640,172,60,934,179,0,0,0,0,0,0,0,0,0,0,0,0,0,0,0,0,0,0,0,0,0,0,0,0,0,0,0,0,0,0,0,0,0,0,0,0,0,0,0,0,0,0,0,0,0,0,0,0,0,0,0,0,0,0,0,0,0,0],"split_type":[0,0,0,0,0,0,0,0,0,0,0,0,0,0,0,0,0,0,0,0,0,0,0,0,0,0,0,0,0,0,0,0,0,0,0,0,0,0,0,0,0,0,0,0,0,0,0,0,0,0,0,0,0,0,0,0,0,0,0,0,0,0,0,0,0,0,0,0,0,0,0,0,0,0,0,0,0,0,0,0,0,0,0,0,0,0,0,0,0,0,0,0,0,0,0,0,0,0,0,0,0,0,0,0,0,0,0,0,0,0,0,0,0,0,0,0,0,0,0,0,0],"sum_hessian":[1.7045184E3,1.1015735E3,6.02945E2,7.674124E2,3.3416104E2,1.3571535E2,4.6722964E2,6.7901215E2,8.840024E1,1.6137413E2,1.7278691E2,3.6811584E1,9.890377E1,8.38403E1,3.8338934E2,3.949137E2,2.8409848E2,5.0384773E1,3.8015465E1,1.3595535E2,2.5418783E1,1.4260025E2,3.0186663E1,3.106744E1,5.7441444E0,2.2001242E1,7.690253E1,5.920133E1,2.4638977E1,3.591102E2,2.427914E1,2.636813E2,1.3123236E2,2.6736612E2,1.6732342E1,3.2035744E1,1.8349031E1,3.1916372E1,6.0990925E0,1.4380482E1,1.2157487E2,1.755626E1,7.862524E0,1.0531779E2,3.7282463E1,2.3218239E1,6.9684243E0,2.8565937E1,2.5015032E0,4.6866403E0,1.0575043E0,1.527956E1,6.7216825E0,6.2856354E1,1.4046171E1,5.6043133E1,3.1581924E0,1.2500846E1,1.2138131E1,3.5594424E2,3.1659842E0,1.8104244E1,6.1748962E0,1.2423864E2,1.3944269E2,9.681901E1,3.441336E1,2.6337445E2,3.9916666E0,9.174752E0,7.55759E0,5.334259E0,2.6701483E1,1.2942734E1,5.406297E0,2.9920017E1,1.9963542E0,3.566977E0,2.5321155E0,7.6373334E0,6.743149E0,2.6606722E1,9.496815E1,7.9243712E0,9.6318865E0,5.6092787E0,2.2532454E0,8.526578E1,2.0052011E1,1.8906523E1,1.837594E1,2.0661665E1,2.5565734E0,2.5138655E0,4.454559E0,2.8545523E0,2.5711386E1,2.1792707E0,1.3100289E1,1.0498772E0,5.6718054E0,5.5140404E1,7.7159495E0,6.471318E0,7.574854E0,5.3227867E1,2.8152688E0,1.3142091E0,1.8439832E0,1.1156028E1,1.3448185E0,3.340412E0,8.79772E0,3.5245294E2,3.4912877E0,1.2124782E0,1.953506E0,1.6853079E1,1.2511661E0,1.5152483E0,4.6596475E0],"tree_param":{"num_deleted":"0","num_feature":"1280","num_nodes":"121","size_leaf_vector":"1"}},{"base_weights":[-1.1836774E-2,5.5576897E-1,-8.814414E-1,7.9379195E-1,-3.907291E-1,-3.7141633E-1,-1.1707517E0,1.0154656E0,-1.2613935E-2,1.9116798E-1,-8.254907E-1,-7.472758E-1,2.764429E-1,-5.30122E-1,-1.3188426E0,1.2037755E0,3.859903E-1,-5.0771743E-1,6.379488E-1,-1.2142297E0,4.2039874E-1,-1.22718E0,-2.294531E-1,3.040879E-1,-9.377146E-1,-2.8986758E-1,9.2821014E-1,1.8080802E-1,-1.0817261E0,-1.337954E0,3.5654694E-1,1.2580853E0,-4.8405516E-1,-5.672041E-1,7.120627E-1,1.9452335E-1,-8.616491E-1,-9.395419E-1,8.7597454E-1,-4.1834272E-2,1.1516749E-2,1.0576086E0,-1.7261304E-1,-1.2950207E0,4.216535E-2,9.45138E-1,-6.969127E-1,1.1577795E0,-7.5193834E-1,7.717374E-2,-1.1033213E0,2.96274E-1,-1.1743268E0,-9.15626E-1,1.2457442E0,-1.1179901E0,6.811566E-1,-1.2318717E0,1.2403722E0,-1.3776327E0,-5.285661E-1,4.4882793E-2,-2.8709263E-2,4.194916E-2,1.8353123E-2,-4.4792492E-2,2.6882617E-2,2.2441331E-2,-3.168641E-2,2.7831353E-2,-2.0864516E-2,-2.91507E-2,2.0859564E-2,-3.9402876E-2,-4.813152E-3,-4.1483093E-2,3.8211346E-2,3.5030383E-3,3.9346423E-2,-1.0448412E-2,4.451003E-2,2.2936448E-2,-2.7891144E-2,-4.0916435E-2,3.287413E-2,4.41778E-2,-3.2786272E-2,-3.456166E-2,1.7607676E-2,-3.294122E-2,4.9715474E-2,-4.1024443E-2,4.020015E-2,2.0599265E-2,-3.8958326E-2,-3.534567E-2,2.5806677E-2,2.7179085E-2,-3.3367354E-2,-4.272044E-2,2.3352593E-2,1.5018892E-2,-3.7765045E-2,4.242921E-2,-3.1182224E-2,1.53887E-2,-4.0462647E-2,3.2278676E-2,-3.6955368E-2,-4.0340044E-2,4.5045447E-2,1.1707434E-2,4.420653E-2,-4.1544806E-2,1.25701E-2,3.6587838E-2,-3.4832954E-2],"categories":[],"categories_nodes":[],"categories_segments":[],"categories_sizes":[],"default_left":[0,0,0,0,0,0,0,0,0,0,0,0,0,0,0,0,0,0,0,0,0,0,0,0,0,0,0,0,0,0,0,0,0,0,0,0,0,0,0,0,0,0,0,0,0,0,0,0,0,0,0,0,0,0,0,0,0,0,0,0,0,0,0,0,0,0,0,0,0,0,0,0,0,0,0,0,0,0,0,0,0,0,0,0,0,0,0,0,0,0,0,0,0,0,0,0,0,0,0,0,0,0,0,0,0,0,0,0,0,0,0,0,0,0,0,0,0],"id":10,"left_children":[1,3,5,7,9,11,13,15,17,19,21,23,25,27,29,31,33,35,37,39,41,43,45,47,49,51,53,55,57,59,61,63,65,67,69,71,73,75,77,-1,-1,79,81,83,-1,85,87,89,91,93,95,97,99,101,103,105,107,109,111,113,115,-1,-1,-1,-1,-1,-1,-1,-1,-1,-1,-1,-1,-1,-1,-1,-1,-1,-1,-1,-1,-1,-1,-1,-1,-1,-1,-1,-1,-1,-1,-1,-1,-1,-1,-1,-1,-1,-1,-1,-1,-1,-1,-1,-1,-1,-1,-1,-1,-1,-1,-1,-1,-1,-1,-1,-1],"loss_changes":[8.21169E2,2.2709265E2,9.6513885E1,1.4385745E2,5.1500755E1,5.8469807E1,3.902948E1,7.435455E1,5.6527473E1,2.8731686E1,2.7574547E1,3.0656944E1,3.2963516E1,3.1685156E1,1.1346313E1,4.510138E1,4.6035618E1,2.4933231E1,2.9303816E1,4.1480255E0,2.8922903E1,1.4193024E1,2.7053743E1,2.2523382E1,2.171164E1,2.531409E1,2.5391193E1,2.4117065E1,1.7342758E1,1.0057617E1,8.344358E0,4.1786316E1,2.3415337E1,2.5216625E1,3.398469E1,2.0653545E1,2.0835594E1,1.1989929E1,2.18126E1,0E0,0E0,2.2561527E1,2.927247E1,1.2698784E1,0E0,1.67766E1,2.1105684E1,1.722557E1,1.6438528E1,1.681116E1,1.7285309E1,2.656654E1,1.0565559E1,3.868176E0,1.5243862E1,4.5961046E0,2.1389599E1,1.5309486E1,6.98123E-2,4.710266E0,2.0564962E1,0E0,0E0,0E0,0E0,0E0,0E0,0E0,0E0,0E0,0E0,0E0,0E0,0E0,0E0,0E0,0E0,0E0,0E0,0E0,0E0,0E0,0E0,0E0,0E0,0E0,0E0,0E0,0E0,0E0,0E0,0E0,0E0,0E0,0E0,0E0,0E0,0E0,0E0,0E0,0E0,0E0,0E0,0E0,0E0,0E0,0E0,0E0,0E0,0E0,0E0,0E0,0E0,0E0,0E0,0E0,0E0],"parents":[2147483647,0,0,1,1,2,2,3,3,4,4,5,5,6,6,7,7,8,8,9,9,10,10,11,11,12,12,13,13,14,14,15,15,16,16,17,17,18,18,19,19,20,20,21,21,22,22,23,23,24,24,25,25,26,26,27,27,28,28,29,29,30,30,31,31,32,32,33,33,34,34,35,35,36,36,37,37,38,38,41,41,42,42,43,43,45,45,46,46,47,47,48,48,49,49,50,50,51,51,52,52,53,53,54,54,55,55,56,56,57,57,58,58,59,59,60,60],"right_children":[2,4,6,8,10,12,14,16,18,20,22,24,26,28,30,32,34,36,38,40,42,44,46,48,50,52,54,56,58,60,62,64,66,68,70,72,74,76,78,-1,-1,80,82,84,-1,86,88,90,92,94,96,98,100,102,104,106,108,110,112,114,116,-1,-1,-1,-1,-1,-1,-1,-1,-1,-1,-1,-1,-1,-1,-1,-1,-1,-1,-1,-1,-1,-1,-1,-1,-1,-1,-1,-1,-1,-1,-1,-1,-1,-1,-1,-1,-1,-1,-1,-1,-1,-1,-1,-1,-1,-1,-1,-1,-1,-1,-1,-1,-1,-1,-1,-1],"split_conditions":[2.2209822E-1,4.297743E-1,3.353938E-1,4.141739E-1,1.5527587E-1,1.3749099E-1,4.5258787E-2,1.3272703E-1,2.6177964E-1,3.890019E-2,1.8648458E-1,1.0291508E-3,8.6803064E-2,5.1682514E-1,1.2766491E0,1.537414E0,4.806322E-2,2.0238138E-3,4.943546E-2,1.8672619E0,5.547404E-2,3.7156389E0,1.1197499E-3,1.3723767E-1,5.184096E-4,7.569369E-1,3.1137029E-2,3.914434E-3,1.9666841E0,6.08623E-1,2.653755E-1,5.5498016E-1,1.3742388E-2,6.466992E-3,4.1146606E-1,1.03181135E-2,8.9184344E-2,2.490111E0,2.7295756E-1,-4.1834272E-2,1.1516749E-2,7.7796374E-3,2.239179E-1,1.528267E0,4.216535E-2,2.6932478E-1,6.6711146E-1,2.3084747E-2,1.0645165E0,8.973344E-2,1.319247E0,2.415645E-1,2.159017E0,1.3423054E-2,4.8049942E-1,1.4459581E-2,2.6783463E-1,1.8821024E0,1.0577743E-1,1.8323457E0,1.0174206E-2,4.4882793E-2,-2.8709263E-2,4.194916E-2,1.8353123E-2,-4.4792492E-2,2.6882617E-2,2.2441331E-2,-3.168641E-2,2.7831353E-2,-2.0864516E-2,-2.91507E-2,2.0859564E-2,-3.9402876E-2,-4.813152E-3,-4.1483093E-2,3.8211346E-2,3.5030383E-3,3.9346423E-2,-1.0448412E-2,4.451003E-2,2.2936448E-2,-2.7891144E-2,-4.0916435E-2,3.287413E-2,4.41778E-2,-3.2786272E-2,-3.456166E-2,1.7607676E-2,-3.294122E-2,4.9715474E-2,-4.1024443E-2,4.020015E-2,2.0599265E-2,-3.8958326E-2,-3.534567E-2,2.5806677E-2,2.7179085E-2,-3.3367354E-2,-4.272044E-2,2.3352593E-2,1.5018892E-2,-3.7765045E-2,4.242921E-2,-3.1182224E-2,1.53887E-2,-4.0462647E-2,3.2278676E-2,-3.6955368E-2,-4.0340044E-2,4.5045447E-2,1.1707434E-2,4.420653E-2,-4.1544806E-2,1.25701E-2,3.6587838E-2,-3.4832954E-2],"split_indices":[208,534,126,735,147,567,446,978,663,1022,1268,744,667,534,667,954,839,912,355,843,136,181,219,735,891,719,804,580,731,437,23,1219,826,367,219,91,975,771,233,0,0,322,23,437,0,901,76,0,225,1041,233,1251,948,273,666,620,886,1150,12,896,914,0,0,0,0,0,0,0,0,0,0,0,0,0,0,0,0,0,0,0,0,0,0,0,0,0,0,0,0,0,0,0,0,0,0,0,0,0,0,0,0,0,0,0,0,0,0,0,0,0,0,0,0,0,0,0,0],"split_type":[0,0,0,0,0,0,0,0,0,0,0,0,0,0,0,0,0,0,0,0,0,0,0,0,0,0,0,0,0,0,0,0,0,0,0,0,0,0,0,0,0,0,0,0,0,0,0,0,0,0,0,0,0,0,0,0,0,0,0,0,0,0,0,0,0,0,0,0,0,0,0,0,0,0,0,0,0,0,0,0,0,0,0,0,0,0,0,0,0,0,0,0,0,0,0,0,0,0,0,0,0,0,0,0,0,0,0,0,0,0,0,0,0,0,0,0,0],"sum_hessian":[1.661665E3,1.0056325E3,6.560326E2,8.036851E2,2.0194736E2,2.3827007E2,4.177625E2,6.3019183E2,1.7349332E2,8.659992E1,1.1534744E2,1.5069182E2,8.757824E1,7.929943E1,3.384631E2,4.843765E2,1.4581532E2,9.864229E1,7.4851036E1,1.1541686E1,7.5058235E1,6.8275475E1,4.7071968E1,2.3018087E1,1.2767373E2,4.7158344E1,4.0419895E1,3.4939796E1,4.435963E1,3.3484488E2,3.618215E0,4.6952316E2,1.4853343E1,3.697839E1,1.0883694E2,3.3206738E1,6.543555E1,9.427045E0,6.542399E1,1.0486393E1,1.055293E0,3.580316E1,3.9255074E1,6.705565E1,1.2198288E0,1.3109563E1,3.3962406E1,1.2675146E1,1.0342942E1,1.7985725E1,1.0968801E2,2.876227E1,1.8396072E1,5.661503E0,3.4758392E1,9.373573E0,2.5566221E1,4.2106544E1,2.2530866E0,3.1852762E2,1.6317274E1,1.8629873E0,1.7552277E0,3.8486237E2,8.46608E1,8.532999E0,6.3203444E0,9.878715E0,2.7099672E1,9.467306E1,1.4163878E1,9.693343E0,2.3513393E1,3.9264744E1,2.6170805E1,8.166789E0,1.2602559E0,2.4313492E1,4.1110497E1,8.369256E0,2.7433903E1,1.7537071E1,2.1718002E1,6.559589E1,1.4597569E0,1.0634658E1,2.4749043E0,2.5149206E1,8.8132E0,2.0801828E0,1.0594963E1,8.259067E0,2.0838754E0,1.2811277E1,5.174448E0,1.0604462E2,3.6433945E0,2.0322298E1,8.439973E0,1.6550596E1,1.8454776E0,1.0148865E0,4.6466165E0,3.2725506E1,2.0328867E0,1.0103066E0,8.363267E0,2.1555271E1,4.010951E0,4.0925755E1,1.1807921E0,1.0604591E0,1.1926274E0,3.1748553E2,1.042072E0,4.0887847E0,1.222849E1],"tree_param":{"num_deleted":"0","num_feature":"1280","num_nodes":"117","size_leaf_vector":"1"}},{"base_weights":[-6.5877866E-3,6.1801034E-1,-7.903628E-1,9.3409145E-1,-1.3092361E-2,1.3899148E-2,-1.0821276E0,5.295592E-1,1.2909589E0,4.7988644E-1,-5.791678E-1,5.41134E-1,-8.67096E-1,-3.7898824E-1,-1.2115401E0,8.07818E-2,8.888016E-1,5.67228E-1,1.4520956E0,5.848418E-1,-4.3181818E-2,4.1371334E-2,-9.738704E-1,8.77563E-1,-6.310673E-1,-1.147315E0,5.197247E-1,-7.10345E-1,8.115947E-1,-1.2354178E0,7.1563005E-1,4.9827617E-1,-5.017517E-1,3.8067347E-1,1.300291E0,1.3726424E0,-4.1335564E-2,1.534384E0,4.674648E-1,7.3115784E-1,-8.5534275E-1,5.3740585E-1,-9.748328E-1,4.378435E-1,-1.152436E0,1.1095608E0,-4.478626E-1,-9.84779E-1,1.0523722E0,-1.293733E0,1.2129483E0,1.5658014E0,-6.392791E-1,-1.1241548E-2,-1.2817746E0,-8.277612E-1,1.3599544E0,-8.3057016E-1,-1.3279233E0,5.0703425E-2,-2.8766686E-2,3.720017E-3,4.1127447E-2,-2.9004939E-2,1.9475557E-2,-2.542284E-2,2.0960094E-2,4.2617623E-2,-3.6174603E-2,-3.2880735E-2,4.8973504E-2,1.3002167E-2,-3.8416408E-2,4.6766285E-2,-3.2089114E-2,-3.544968E-2,3.7687164E-2,3.1569526E-2,3.6919827E-3,-4.357094E-2,3.901423E-2,-3.1588476E-2,2.7162524E-2,-3.9265513E-2,2.4177954E-2,-3.421148E-2,3.532654E-2,-3.777706E-2,1.6891338E-2,4.0506944E-3,4.0789854E-2,-4.0818844E-2,3.450873E-2,-3.509248E-2,2.874968E-2,5.4753073E-2,-2.4223968E-2,-4.2183492E-2,1.8463235E-2,4.982748E-2,4.270851E-3,6.8939338E-3,5.3098045E-2,-3.7682902E-2,3.5296265E-2,2.3923693E-2,-2.765026E-2,-4.2015888E-2,1.3589702E-2,1.0665936E-2,-3.578983E-2,5.3493742E-2,-2.8791452E-2,1.9171614E-2,-3.132434E-2,-4.060808E-2,3.2776603E-3],"categories":[],"categories_nodes":[],"categories_segments":[],"categories_sizes":[],"default_left":[0,0,0,0,0,0,0,0,0,0,0,0,0,0,0,0,0,0,0,0,0,0,0,0,0,0,0,0,0,0,0,0,0,0,0,0,0,0,0,0,0,0,0,0,0,0,0,0,0,0,0,0,0,0,0,0,0,0,0,0,0,0,0,0,0,0,0,0,0,0,0,0,0,0,0,0,0,0,0,0,0,0,0,0,0,0,0,0,0,0,0,0,0,0,0,0,0,0,0,0,0,0,0,0,0,0,0,0,0,0,0,0,0,0,0,0,0],"id":11,"left_children":[1,3,5,7,9,11,13,15,17,19,21,23,25,27,29,31,33,35,37,39,-1,41,43,45,47,49,51,53,55,57,59,61,63,65,67,69,71,73,75,77,79,81,83,85,87,89,91,93,95,97,99,101,103,105,107,109,111,113,115,-1,-1,-1,-1,-1,-1,-1,-1,-1,-1,-1,-1,-1,-1,-1,-1,-1,-1,-1,-1,-1,-1,-1,-1,-1,-1,-1,-1,-1,-1,-1,-1,-1,-1,-1,-1,-1,-1,-1,-1,-1,-1,-1,-1,-1,-1,-1,-1,-1,-1,-1,-1,-1,-1,-1,-1,-1,-1],"loss_changes":[8.123628E2,1.8423062E2,1.7270578E2,8.814844E1,8.655367E1,9.1925026E1,4.868164E1,4.669831E1,3.7221313E1,3.423979E1,3.5399345E1,4.9373463E1,2.9392818E1,3.426719E1,2.1851074E1,3.188554E1,3.3173332E1,2.9979448E1,2.0849731E1,3.3900894E1,0E0,2.9298841E1,2.2758484E1,3.0202805E1,1.7821018E1,2.2980507E1,1.6936977E1,2.6886906E1,1.8259714E1,1.5765991E1,1.1753292E1,2.474178E1,2.9962748E1,2.9282522E1,2.841124E1,1.8660038E1,2.15837E1,1.7306824E1,3.0060106E1,2.7970917E1,2.1226189E1,2.3781767E1,1.2403767E1,1.3761052E1,1.5117294E1,1.9925041E1,2.359658E1,9.678827E0,9.20232E0,1.3486107E1,1.7466784E0,1.5564804E0,9.257099E0,2.3776545E1,8.265987E0,2.7575023E0,1.6102562E1,2.7801071E1,1.3617859E1,0E0,0E0,0E0,0E0,0E0,0E0,0E0,0E0,0E0,0E0,0E0,0E0,0E0,0E0,0E0,0E0,0E0,0E0,0E0,0E0,0E0,0E0,0E0,0E0,0E0,0E0,0E0,0E0,0E0,0E0,0E0,0E0,0E0,0E0,0E0,0E0,0E0,0E0,0E0,0E0,0E0,0E0,0E0,0E0,0E0,0E0,0E0,0E0,0E0,0E0,0E0,0E0,0E0,0E0,0E0,0E0,0E0,0E0],"parents":[2147483647,0,0,1,1,2,2,3,3,4,4,5,5,6,6,7,7,8,8,9,9,10,10,11,11,12,12,13,13,14,14,15,15,16,16,17,17,18,18,19,19,21,21,22,22,23,23,24,24,25,25,26,26,27,27,28,28,29,29,30,30,31,31,32,32,33,33,34,34,35,35,36,36,37,37,38,38,39,39,40,40,41,41,42,42,43,43,44,44,45,45,46,46,47,47,48,48,49,49,50,50,51,51,52,52,53,53,54,54,55,55,56,56,57,57,58,58],"right_children":[2,4,6,8,10,12,14,16,18,20,22,24,26,28,30,32,34,36,38,40,-1,42,44,46,48,50,52,54,56,58,60,62,64,66,68,70,72,74,76,78,80,82,84,86,88,90,92,94,96,98,100,102,104,106,108,110,112,114,116,-1,-1,-1,-1,-1,-1,-1,-1,-1,-1,-1,-1,-1,-1,-1,-1,-1,-1,-1,-1,-1,-1,-1,-1,-1,-1,-1,-1,-1,-1,-1,-1,-1,-1,-1,-1,-1,-1,-1,-1,-1,-1,-1,-1,-1,-1,-1,-1,-1,-1,-1,-1,-1,-1,-1,-1,-1,-1],"split_conditions":[3.80227E-1,2.191618E-1,4.58767E-3,3.0280393E-1,9.03885E-2,5.2932614E-1,4.5882342E-3,1.04739964E-1,1.6878922E-1,1.2247449E0,6.664713E-2,5.777451E-1,7.0404035E-1,7.2320914E-1,1.7611195E0,5.795445E-2,1.3198806E-1,6.7668684E-2,9.899452E-1,3.435187E-1,-4.3181818E-2,2.4501202E-1,2.0338342E-2,7.677542E-1,1.9203146E0,1.6072677E0,9.297424E-2,2.191618E-1,2.7167942E-2,1.5531527E-1,9.4771035E-2,5.6872654E-1,5.4636264E-1,3.7573017E-3,9.645772E-1,8.784625E-3,4.3175094E-2,1.1905482E0,4.9849123E-2,4.546831E-1,1.1338359E0,3.81721E-2,6.9232816E-1,2.6456006E-2,8.9510643E-1,2.3614153E-2,6.5185046E-1,6.02538E-1,1.0442022E-1,1.461133E0,4.3644905E-2,2.8317899E-2,3.1775653E-1,7.801337E-2,1.8620385E0,7.245103E-4,1.6750076E-1,9.748206E-4,1.4913334E0,5.0703425E-2,-2.8766686E-2,3.720017E-3,4.1127447E-2,-2.9004939E-2,1.9475557E-2,-2.542284E-2,2.0960094E-2,4.2617623E-2,-3.6174603E-2,-3.2880735E-2,4.8973504E-2,1.3002167E-2,-3.8416408E-2,4.6766285E-2,-3.2089114E-2,-3.544968E-2,3.7687164E-2,3.1569526E-2,3.6919827E-3,-4.357094E-2,3.901423E-2,-3.1588476E-2,2.7162524E-2,-3.9265513E-2,2.4177954E-2,-3.421148E-2,3.532654E-2,-3.777706E-2,1.6891338E-2,4.0506944E-3,4.0789854E-2,-4.0818844E-2,3.450873E-2,-3.509248E-2,2.874968E-2,5.4753073E-2,-2.4223968E-2,-4.2183492E-2,1.8463235E-2,4.982748E-2,4.270851E-3,6.8939338E-3,5.3098045E-2,-3.7682902E-2,3.5296265E-2,2.3923693E-2,-2.765026E-2,-4.2015888E-2,1.3589702E-2,1.0665936E-2,-3.578983E-2,5.3493742E-2,-2.8791452E-2,1.9171614E-2,-3.132434E-2,-4.060808E-2,3.2776603E-3],"split_indices":[445,729,412,663,208,126,446,263,238,574,225,534,238,1274,1039,289,1174,1061,266,1035,0,171,157,1203,257,528,806,729,17,945,906,896,537,868,1021,513,818,643,890,266,950,1240,437,210,1125,1,1062,516,56,58,54,497,823,978,471,718,573,213,695,0,0,0,0,0,0,0,0,0,0,0,0,0,0,0,0,0,0,0,0,0,0,0,0,0,0,0,0,0,0,0,0,0,0,0,0,0,0,0,0,0,0,0,0,0,0,0,0,0,0,0,0,0,0,0,0,0,0],"split_type":[0,0,0,0,0,0,0,0,0,0,0,0,0,0,0,0,0,0,0,0,0,0,0,0,0,0,0,0,0,0,0,0,0,0,0,0,0,0,0,0,0,0,0,0,0,0,0,0,0,0,0,0,0,0,0,0,0,0,0,0,0,0,0,0,0,0,0,0,0,0,0,0,0,0,0,0,0,0,0,0,0,0,0,0,0,0,0,0,0,0,0,0,0,0,0,0,0,0,0,0,0,0,0,0,0,0,0,0,0,0,0,0,0,0,0,0,0],"sum_hessian":[1.6574283E3,9.224946E2,7.349337E2,6.143326E2,3.0816202E2,1.9589456E2,5.390392E2,2.8910144E2,3.2523114E2,1.6479716E2,1.4336485E2,1.2279388E2,7.3100685E1,8.4399284E1,4.546399E2,1.2907793E2,1.6002353E2,6.0048576E1,2.6518256E2,1.5691177E2,7.885399E0,5.6084984E1,8.727988E1,9.560578E1,2.7188095E1,6.0956585E1,1.2144098E1,6.633941E1,1.805987E1,4.4943036E2,5.209525E0,7.5274376E1,5.3803547E1,7.2465065E1,8.7558464E1,2.5304E1,3.4744576E1,2.4421454E2,2.0968035E1,1.4288739E2,1.4024376E1,3.8004974E1,1.808001E1,9.637239E0,7.764263E1,8.15027E1,1.4103081E1,2.281037E1,4.3777246E0,5.7821518E1,3.1350667E0,6.198531E0,5.9455676E0,3.029514E1,3.6044273E1,4.399065E0,1.3660805E1,8.544806E1,3.639823E2,3.2872195E0,1.9223055E0,5.3479195E1,2.1795181E1,3.8433144E1,1.5370403E1,1.4561949E1,5.790312E1,8.3961365E1,3.5970998E0,2.1029918E0,2.3201008E1,2.5590956E1,9.153622E0,2.423366E2,1.8779409E0,6.6229925E0,1.4345041E1,9.302586E1,4.986153E1,1.1238377E1,2.785999E0,6.792055E0,3.1212917E1,1.5447526E1,2.6324842E0,2.9026139E0,6.7346263E0,7.334256E1,4.3000712E0,1.6959314E1,6.454338E1,9.070947E0,5.0321336E0,2.1191116E1,1.6192546E0,3.105938E0,1.2717867E0,5.4855923E1,2.9655964E0,1.8214899E0,1.3135769E0,1.1033171E0,5.095214E0,4.6681046E0,1.2774631E0,1.61097E1,1.418544E1,3.391524E1,2.129032E0,1.0438231E0,3.355242E0,1.1748808E1,1.9119978E0,1.0589391E1,7.4858665E1,3.5765002E2,6.3322787E0],"tree_param":{"num_deleted":"0","num_feature":"1280","num_nodes":"117","size_leaf_vector":"1"}},{"base_weights":[2.5995555E-3,6.504684E-1,-6.9892824E-1,9.201951E-1,-1.1999681E-1,-1.5150498E-1,-1.0584168E0,1.0467571E0,-7.814944E-3,3.635508E-1,-5.959256E-1,-6.836508E-1,2.3045394E-1,-1.1297052E0,2.4255073E-1,1.1081066E0,-7.705722E-1,-5.5186903E-1,8.215784E-1,-7.9063976E-1,6.467748E-1,2.0592639E-1,-9.2433745E-1,-9.326453E-1,1.6608597E-1,6.865052E-1,-3.5271528E-1,-1.2265124E0,-5.6918687E-1,1.1690239E0,-8.091906E-1,7.5397205E-1,1.3969132E0,7.7159935E-1,-1.3114332E0,5.5084586E-1,-9.437369E-1,-3.8154882E-1,1.3791492E0,-1.1681228E0,8.863697E-1,1.1353993E0,9.72398E-3,7.7158904E-1,-4.0171046E-2,1.7925346E-2,-1.202598E0,-1.2657219E0,-3.1309336E-1,1.0302417E0,-6.77398E-1,-5.175791E-1,9.998581E-1,3.6962643E-1,-1.0321994E0,-1.248666E0,6.573422E-1,-4.0988322E-2,-1.8966936E-1,-2.7924573E-2,1.5631859E0,-3.9707515E-2,3.1060355E-2,2.595722E-2,-1.5686836E-2,4.4451606E-2,1.5241507E-2,4.6920747E-2,-2.8068587E-2,-4.3925144E-2,1.0133107E-2,-3.475171E-2,3.471615E-2,-3.494334E-2,2.5300182E-2,2.2719698E-2,-4.074995E-2,-2.995549E-2,4.92963E-2,-4.227722E-2,1.9463662E-2,5.1535513E-2,-2.3758706E-2,-1.3261949E-2,4.4239998E-2,2.6481697E-2,-1.9973628E-2,3.5043914E-2,-3.6174253E-2,-2.8094364E-2,2.8896652E-2,-4.0125173E-2,1.05942E-2,-3.9927572E-2,2.8112873E-2,2.6169946E-2,-2.8911619E-2,5.317871E-2,-1.3189432E-2,-4.093147E-2,2.7979974E-2,2.125343E-2,-4.2623077E-2,3.4610985E-3,4.2852446E-2,2.3713743E-2,-4.0023282E-2,-3.9510004E-2,6.1625596E-3,-3.8275644E-2,7.2730985E-3,5.030699E-2,-2.745224E-2,1.1953275E-2,-2.9720444E-2,-2.193304E-3,5.4034416E-2],"categories":[],"categories_nodes":[],"categories_segments":[],"categories_sizes":[],"default_left":[0,0,0,0,0,0,0,0,0,0,0,0,0,0,0,0,0,0,0,0,0,0,0,0,0,0,0,0,0,0,0,0,0,0,0,0,0,0,0,0,0,0,0,0,0,0,0,0,0,0,0,0,0,0,0,0,0,0,0,0,0,0,0,0,0,0,0,0,0,0,0,0,0,0,0,0,0,0,0,0,0,0,0,0,0,0,0,0,0,0,0,0,0,0,0,0,0,0,0,0,0,0,0,0,0,0,0,0,0,0,0,0,0,0,0,0,0],"id":12,"left_children":[1,3,5,7,9,11,13,15,17,19,21,23,25,27,29,31,33,35,37,39,41,43,45,47,49,51,53,55,57,59,61,63,65,67,69,71,73,75,77,79,81,83,85,87,-1,89,91,93,95,97,99,101,103,105,107,109,111,-1,113,-1,115,-1,-1,-1,-1,-1,-1,-1,-1,-1,-1,-1,-1,-1,-1,-1,-1,-1,-1,-1,-1,-1,-1,-1,-1,-1,-1,-1,-1,-1,-1,-1,-1,-1,-1,-1,-1,-1,-1,-1,-1,-1,-1,-1,-1,-1,-1,-1,-1,-1,-1,-1,-1,-1,-1,-1,-1],"loss_changes":[7.581529E2,1.8033167E2,1.5744888E2,7.54657E1,5.217147E1,6.492163E1,4.5093445E1,6.3887695E1,3.5693035E1,3.732104E1,3.025156E1,2.8377926E1,4.977318E1,2.4171997E1,2.6210945E1,5.492401E1,1.6903362E1,2.1157219E1,2.154826E1,1.5365669E1,2.8305038E1,3.0735172E1,2.1303299E1,2.092334E1,2.3350761E1,4.0077366E1,4.081987E1,1.7095642E1,2.0724918E1,1.3203312E1,1.3452836E1,3.5690353E1,2.1883423E1,9.007467E0,4.140936E0,1.4972784E1,1.5046972E1,1.2939612E1,1.5221333E1,9.198294E0,7.9581137E0,2.8198845E1,2.4468403E1,2.1413424E1,0E0,1.8486105E1,1.3627167E1,1.0849831E1,2.9725685E1,1.7963451E1,1.9335466E1,2.5711605E1,3.1500816E1,3.021552E1,1.53274765E1,1.594928E1,9.85125E0,0E0,2.3079063E1,0E0,4.930401E0,0E0,0E0,0E0,0E0,0E0,0E0,0E0,0E0,0E0,0E0,0E0,0E0,0E0,0E0,0E0,0E0,0E0,0E0,0E0,0E0,0E0,0E0,0E0,0E0,0E0,0E0,0E0,0E0,0E0,0E0,0E0,0E0,0E0,0E0,0E0,0E0,0E0,0E0,0E0,0E0,0E0,0E0,0E0,0E0,0E0,0E0,0E0,0E0,0E0,0E0,0E0,0E0,0E0,0E0,0E0,0E0],"parents":[2147483647,0,0,1,1,2,2,3,3,4,4,5,5,6,6,7,7,8,8,9,9,10,10,11,11,12,12,13,13,14,14,15,15,16,16,17,17,18,18,19,19,20,20,21,21,22,22,23,23,24,24,25,25,26,26,27,27,28,28,29,29,30,30,31,31,32,32,33,33,34,34,35,35,36,36,37,37,38,38,39,39,40,40,41,41,42,42,43,43,45,45,46,46,47,47,48,48,49,49,50,50,51,51,52,52,53,53,54,54,55,55,56,56,58,58,60,60],"right_children":[2,4,6,8,10,12,14,16,18,20,22,24,26,28,30,32,34,36,38,40,42,44,46,48,50,52,54,56,58,60,62,64,66,68,70,72,74,76,78,80,82,84,86,88,-1,90,92,94,96,98,100,102,104,106,108,110,112,-1,114,-1,116,-1,-1,-1,-1,-1,-1,-1,-1,-1,-1,-1,-1,-1,-1,-1,-1,-1,-1,-1,-1,-1,-1,-1,-1,-1,-1,-1,-1,-1,-1,-1,-1,-1,-1,-1,-1,-1,-1,-1,-1,-1,-1,-1,-1,-1,-1,-1,-1,-1,-1,-1,-1,-1,-1,-1,-1],"split_conditions":[2.5318792E-1,3.980398E-1,2.1098946E-1,4.097149E-1,6.556145E-2,1.2747289E-1,7.4441373E-1,1.3772844E0,1.854705E-1,1.865601E-3,1.3267316E-1,4.8705456E-1,1.8682829E-1,5.373281E-1,2.3554772E-2,3.839306E-1,5.785505E-2,6.6044866E-3,3.0910697E-2,7.4809754E-1,1.4709578E-1,7.951378E-2,1.2756114E-2,7.610365E-2,1.5953764E-2,2.0249493E-2,9.48536E-2,1.2999886E0,3.6443293E-2,7.683893E-2,4.058601E-1,6.6145104E-1,2.7536547E-1,9.448828E-2,1.3973906E0,1.14223324E-1,6.6711146E-1,2.268256E-3,8.00775E-4,7.9350126E-1,9.386209E-1,3.6547817E-3,8.070167E-3,9.881506E-2,-4.0171046E-2,2.0337591E-2,3.8905E-1,1.143441E0,2.6180675E-2,1.9636275E-1,2.1067472E-1,4.5552284E-2,1.0137186E-1,6.342087E-1,5.674071E-1,4.355178E-1,2.6194778E-1,-4.0988322E-2,9.688431E-1,-2.7924573E-2,4.0730555E-3,-3.9707515E-2,3.1060355E-2,2.595722E-2,-1.5686836E-2,4.4451606E-2,1.5241507E-2,4.6920747E-2,-2.8068587E-2,-4.3925144E-2,1.0133107E-2,-3.475171E-2,3.471615E-2,-3.494334E-2,2.5300182E-2,2.2719698E-2,-4.074995E-2,-2.995549E-2,4.92963E-2,-4.227722E-2,1.9463662E-2,5.1535513E-2,-2.3758706E-2,-1.3261949E-2,4.4239998E-2,2.6481697E-2,-1.9973628E-2,3.5043914E-2,-3.6174253E-2,-2.8094364E-2,2.8896652E-2,-4.0125173E-2,1.05942E-2,-3.9927572E-2,2.8112873E-2,2.6169946E-2,-2.8911619E-2,5.317871E-2,-1.3189432E-2,-4.093147E-2,2.7979974E-2,2.125343E-2,-4.2623077E-2,3.4610985E-3,4.2852446E-2,2.3713743E-2,-4.0023282E-2,-3.9510004E-2,6.1625596E-3,-3.8275644E-2,7.2730985E-3,5.030699E-2,-2.745224E-2,1.1953275E-2,-2.9720444E-2,-2.193304E-3,5.4034416E-2],"split_indices":[534,735,219,225,1114,509,238,171,1211,1192,500,616,18,565,611,663,425,728,1120,294,1234,507,474,1215,88,1098,678,569,259,40,31,644,343,218,139,500,76,914,50,459,294,712,638,902,0,994,45,988,128,213,153,504,728,213,694,45,40,0,139,0,513,0,0,0,0,0,0,0,0,0,0,0,0,0,0,0,0,0,0,0,0,0,0,0,0,0,0,0,0,0,0,0,0,0,0,0,0,0,0,0,0,0,0,0,0,0,0,0,0,0,0,0,0,0,0,0,0],"split_type":[0,0,0,0,0,0,0,0,0,0,0,0,0,0,0,0,0,0,0,0,0,0,0,0,0,0,0,0,0,0,0,0,0,0,0,0,0,0,0,0,0,0,0,0,0,0,0,0,0,0,0,0,0,0,0,0,0,0,0,0,0,0,0,0,0,0,0,0,0,0,0,0,0,0,0,0,0,0,0,0,0,0,0,0,0,0,0,0,0,0,0,0,0,0,0,0,0,0,0,0,0,0,0,0,0,0,0,0,0,0,0,0,0,0,0,0,0],"sum_hessian":[1.6661102E3,8.662195E2,7.9989075E2,6.4146075E2,2.2475876E2,3.1763022E2,4.8226053E2,5.6436475E2,7.709599E1,1.1160415E2,1.1315461E2,1.3239183E2,1.8523837E2,4.5733206E2,2.4928493E1,5.4631256E2,1.8052212E1,4.6758564E1,3.033743E1,2.1637152E1,8.9966995E1,3.298681E1,8.01678E1,1.0231373E2,3.0078104E1,1.03848976E2,8.13894E1,3.889655E2,6.836653E1,1.3194243E1,1.1734249E1,2.4702328E2,2.9928925E2,4.5765004E0,1.3475711E1,1.2153359E1,3.46052E1,9.7071085E0,2.063032E1,1.7909336E1,3.727816E0,5.0472103E1,3.9494892E1,2.4512522E1,8.474288E0,1.849032E1,6.1677483E1,6.58625E1,3.6451225E1,1.4747631E1,1.5330473E1,2.1310373E1,8.2538605E1,3.967159E1,4.1717808E1,3.847778E2,4.187699E0,2.1213125E1,4.7153408E1,1.87009E0,1.1324154E1,9.396296E0,2.3379536E0,2.2751921E2,1.9504086E1,2.7261218E2,2.6677082E1,3.1829658E0,1.393535E0,1.24361515E1,1.0395592E0,2.944068E0,9.209291E0,3.1105968E1,3.4992347E0,4.5854344E0,5.121674E0,1.7841381E0,1.8846182E1,1.6009172E1,1.9001633E0,2.47707E0,1.2507459E0,8.880084E0,4.159202E1,1.7095163E1,2.2399729E1,2.075886E1,3.7536626E0,9.205478E0,9.2848425E0,5.6884907E1,4.792576E0,6.435362E1,1.5088736E0,1.2796182E1,2.3655045E1,9.661859E0,5.0857725E0,1.0852502E1,4.4779706E0,9.131085E0,1.2179287E1,2.7353529E1,5.5185074E1,3.2243355E1,7.4282336E0,3.3861465E1,7.856345E0,3.7802917E2,6.748654E0,2.5001504E0,1.6875486E0,2.7479923E1,1.9673485E1,1.5257035E0,9.79845E0],"tree_param":{"num_deleted":"0","num_feature":"1280","num_nodes":"117","size_leaf_vector":"1"}},{"base_weights":[3.0583813E-4,5.1861143E-1,-8.4018785E-1,9.05157E-1,7.796735E-3,-2.9032505E-1,-1.1442223E0,1.0751494E0,1.3223876E-1,2.642778E-1,-9.467488E-1,5.2976555E-1,-5.902895E-1,-4.9621952E-1,-1.2416608E0,6.1163896E-1,1.2974201E0,8.3603925E-1,-2.7207294E-1,5.9536266E-1,-4.5691293E-1,-1.0718578E0,1.3804775E0,1.273698E0,1.1221359E-3,-8.9476365E-1,4.2438835E-2,-1.2575449E0,1.0467509E-1,-1.2835104E0,